the 0.284221 0.052375 -0.961558 0.092610 -0.096489 -0.418805 0.235611 -0.543348 0.069477 0.541952 -0.171222 1.142820 1.004246 -0.220194 1.016792 0.582295 0.508242 0.640151 0.897139 0.500803 -0.049312 0.650234 0.478698 -0.406216 0.752769 0.828923 0.365857 0.713031 1.342438 -1.022845 -0.996509 -0.624023 0.320775 -1.008167 0.742576 0.118532 -1.155262 0.088348 0.254075 0.168262 1.689400 0.408633 0.147578 -0.757048 0.946226 0.736469 0.334472 -0.128208 -0.506449 0.494994
of 0.071853 -1.079961 -0.186462 -0.310270 0.015870 -1.468298 0.866197 -0.279228 -1.072010 0.518810 -0.399987 0.499093 0.671030 -0.156080 0.755713 0.639497 0.560526 -0.121517 -0.107844 -0.087843 0.975219 0.099122 0.282354 0.046494 -0.878964 1.013289 -0.011160 -0.129051 1.500868 -0.130277 -1.205230 -0.111521 0.599796 -1.105368 -0.276771 0.072692 -0.785484 0.507913 0.573888 -0.649782 1.288604 0.817167 -0.360112 -0.482431 0.625334 0.047893 0.051480 -0.027855 0.125457 0.008732
is 0.300890 -0.296304 -0.398572 -0.540646 -0.583850 -0.873483 0.244827 0.380184 0.209780 0.524108 0.619276 0.451016 0.387257 0.051912 1.263810 1.062940 0.204611 0.202031 -0.000507 0.715950 0.673803 0.817585 0.253022 0.550031 -0.347613 -0.036588 0.137811 -0.398108 -0.393624 -0.400156 0.601718 -0.735248 0.581159 -0.161156 0.398212 0.339347 -1.024310 0.193677 0.567217 -0.463268 1.550151 -0.307823 -0.982971 0.417256 1.227393 0.763369 0.172114 -0.691118 -0.294561 0.594586
to 0.313319 -0.666582 0.778922 -0.421593 -0.861968 -1.166662 -0.228270 -0.850575 0.291156 1.436364 -0.076735 1.150405 0.142942 -0.301487 0.028530 -0.601330 -0.986664 0.630489 0.222870 0.760248 -0.438736 1.063105 0.646942 -0.461804 0.878843 1.261219 0.878142 0.267755 1.336497 0.491419 0.152411 -0.566505 0.438492 -0.315511 -0.208328 0.433512 -0.195362 1.222222 1.122429 -0.389444 0.759047 -0.069715 -0.786729 0.593966 0.711299 0.381665 -0.216550 -0.078451 -0.648716 0.589531
and -0.461579 -0.440582 -0.479932 -0.019533 0.397982 -1.166699 -0.602662 -0.629491 -0.496689 0.391040 0.385942 1.252732 0.944110 -0.227163 0.538921 0.523106 0.755366 -0.185884 0.731884 0.059718 -0.339490 -0.499916 0.900776 -0.326902 -0.333001 0.583630 -0.135752 0.156115 0.777059 -0.788352 0.334907 -0.228090 1.378128 -0.368485 -0.249884 -0.015024 -0.202620 0.422143 -0.340458 -1.021963 1.255887 -0.548316 -0.045867 0.135125 1.057097 -0.082430 -0.413917 1.201013 -0.772788 0.222532
05 -0.280147 0.689190 0.162421 0.113143 0.124746 1.269942 0.283134 -0.168071 0.444615 0.178558 -0.914091 -0.567590 -0.159999 0.542798 -0.972798 -0.976852 0.228305 -0.835798 -0.927703 -0.431577 -0.371802 -0.645495 -0.223766 -0.383034 -0.722811 -0.686753 0.018094 0.890144 -0.353953 0.233489 -0.160474 -0.286833 -0.370058 0.302446 -0.631780 0.036577 0.272191 -0.989449 -0.438137 0.490019 -0.694158 -0.520593 0.877565 -0.261163 -0.405587 -0.274945 -0.565225 0.217230 1.013331 -0.067080
in -0.368115 -0.207956 -0.902041 0.085409 -1.385893 -0.735382 -0.654557 -0.620402 -0.161034 0.388982 -0.116245 0.758076 0.048624 -1.064027 0.764896 0.658753 0.005258 0.116035 0.296491 1.393390 -0.642008 0.401262 0.937144 0.229210 -0.031491 0.759751 -0.033662 -0.791944 0.687402 0.345412 -0.305374 0.015317 0.425783 -0.613548 1.039353 -0.446944 -0.868594 -0.223188 0.545531 -0.667440 1.135408 -0.304685 -0.107136 -1.025986 -0.061473 0.030118 0.276523 0.126026 -0.134402 -0.478117
that -0.387349 -0.934870 -0.035885 -0.097347 -0.053365 -0.313503 0.553684 1.178088 0.194664 0.924218 0.597675 -0.002777 0.401432 0.236288 1.172275 0.429031 -0.038305 0.720913 0.379291 0.578703 0.454279 0.087727 0.509787 -0.550814 0.713743 0.960329 -0.084094 -0.477090 -0.389694 -0.439773 0.354399 -0.308041 0.329680 -0.241563 0.154278 0.662945 -0.718591 0.131251 0.760489 0.131337 1.183931 0.687083 -0.687311 -0.310654 0.551654 -0.139273 0.343175 0.713724 -0.482197 0.723675
be -0.334688 -0.528391 -0.958247 -0.079653 -0.161332 -0.845299 -0.846950 -0.035083 0.331650 0.761025 -0.252910 0.375620 -0.028434 -1.099968 1.382811 0.059174 -1.002760 -0.071496 0.666897 0.697856 -0.453170 0.734378 -0.061086 -0.331765 0.273473 0.808388 1.009418 -0.680883 -0.191904 0.715114 -0.229238 -0.347478 0.550344 0.005785 -0.281730 0.264819 -0.372071 0.941547 1.025418 -0.940331 0.812245 -0.302521 -0.034381 -0.516919 0.485374 -0.008792 -0.513124 -0.033665 -0.488786 0.122346
as 0.038560 0.123421 -0.216972 0.178053 -0.177780 -1.151149 -0.428577 -0.601633 -0.432471 -0.339315 0.151830 0.879713 -0.024765 -0.911475 0.293815 0.898947 0.265850 0.276607 -0.190282 -0.662830 0.690044 0.670116 -0.466624 -0.148359 -1.254215 1.171863 0.771447 -1.200776 0.358778 -0.020930 0.183503 -0.018316 0.456194 -0.337857 0.669866 -0.177308 -0.532574 0.586751 0.912855 -0.109103 0.679726 0.622811 -0.425203 -0.214683 0.797612 0.846530 0.121124 -0.590831 -0.175296 0.957654
it -0.275012 -0.534599 -0.361739 0.108826 -0.255242 -1.184446 0.290876 -0.302670 0.417927 0.873689 0.367626 0.499397 0.471110 -0.419430 0.494124 0.724544 0.172013 -0.166326 -0.029417 0.353441 0.499916 0.466700 0.625559 -0.162288 0.362777 0.578331 0.295909 0.006908 -0.223906 -0.261788 0.850508 0.263357 0.252756 0.369197 -0.384898 0.383643 -0.698725 0.470836 0.164031 -0.397792 1.123102 -0.348065 -0.942677 -0.570939 0.771816 0.987547 0.515863 0.370360 -0.316684 0.378782
by 0.415353 0.203454 -0.153944 0.390869 -0.754048 0.079461 -0.173301 0.605056 0.654731 0.098742 -0.000599 0.253103 -0.049541 0.710281 0.480686 0.721899 -0.173399 -0.137480 -0.254200 0.608288 1.180051 -0.143462 0.931842 1.184519 0.754583 0.658301 1.828346 0.002443 0.114218 -0.894332 -0.085834 0.375470 0.945078 -1.113410 0.649936 -0.027266 -0.111268 1.003371 0.534861 -0.326120 0.446281 -0.592826 -0.991127 0.851028 0.866947 -0.807197 -0.620932 0.461256 -0.473992 0.382349
are 0.791495 -0.130027 0.508327 0.371521 -0.004244 -0.850778 -0.548167 -0.052690 -0.134790 -0.078554 0.279445 -0.232686 0.480237 -0.750146 0.497440 0.577047 0.194242 0.889494 1.013337 -0.689121 -0.557297 -0.427267 1.013067 -0.069021 0.198669 1.435819 0.803250 -0.221455 -0.210721 0.724623 0.088422 0.025788 1.221329 0.167312 0.306326 -0.099732 -0.093315 0.367306 0.205282 -0.847860 0.808507 0.537955 -0.524872 -0.799554 0.539588 -0.499020 -0.409156 0.147499 -0.190347 1.470043
for -0.789870 -0.499536 -0.199028 -0.488615 -0.251167 -0.188483 0.240302 -0.084149 0.246238 -0.079968 1.256331 0.719775 0.150715 0.294701 0.990640 0.264463 -0.721001 -0.163241 -0.103362 0.253703 0.590664 0.589280 0.756482 0.244368 -1.052299 0.429877 0.126356 0.127626 0.095566 0.072704 0.356648 -0.805033 0.285463 -0.824183 0.913674 -0.644816 -0.414463 0.746856 1.330532 -0.403596 0.641790 0.671084 -0.410850 -0.473670 0.190440 0.427820 0.303088 -0.310044 0.307940 0.205554
can -0.477679 -0.654217 -0.670125 0.088286 0.004106 -0.867766 -0.323024 0.310608 -0.148655 1.030371 -0.345793 -0.067515 0.072797 -0.574645 1.181503 0.036523 -0.660592 -0.271345 0.602880 0.412558 -0.543231 0.442971 -0.202164 -0.193272 0.600489 1.076607 0.983618 -0.649744 -0.071646 0.148052 -0.625257 -0.214499 0.315325 -0.340351 -0.093648 0.645127 -0.217654 0.550685 0.568932 -0.220538 0.618526 -0.092595 0.006027 -0.444395 0.547027 -0.168912 -0.137432 0.017463 -0.375598 -0.362578
this 0.024047 -0.476789 -0.497190 -0.220931 -0.129452 -0.303418 -0.300857 0.503327 0.205701 0.710360 0.579854 0.331077 0.107065 0.113411 0.928325 0.160671 -0.273550 0.199164 0.345556 0.484452 0.519531 0.257992 0.277615 0.173706 0.776549 0.571762 0.741962 -0.297126 0.327779 -0.520953 -0.183405 -0.352640 0.434474 -0.439354 0.342067 0.062672 -0.855996 0.445779 0.412682 -0.503007 0.750728 0.077071 -0.334498 -0.237235 0.500814 -0.636615 0.423951 -0.389621 -0.509247 0.139428
or 0.083517 0.393659 -0.375518 0.690842 -0.599070 -0.948233 -0.140074 -0.107385 0.394863 0.040614 -0.427153 -0.262677 0.647090 0.157034 -0.286488 0.584769 0.859223 -0.679354 -0.167161 -0.208180 0.904762 -0.009555 0.702495 1.031951 0.706503 1.084627 1.151880 0.000663 0.145833 0.226870 -0.131940 0.699215 0.686031 0.157944 0.614767 0.649028 0.019898 0.725768 -0.242004 0.316282 0.261634 -0.106591 -0.460298 -0.110843 0.941133 -0.112525 -0.228163 0.000454 -0.601151 0.054052
probability -0.663004 -0.365652 -1.378744 0.325070 -0.022297 -0.856242 0.646637 0.410829 0.300965 0.216754 -0.010634 0.034907 1.102764 0.145086 0.470315 0.876450 0.851479 -0.589989 0.085904 0.151009 1.006831 0.541625 0.414254 -0.059245 0.398718 0.040311 -0.477816 0.328092 0.192688 -0.624834 0.161298 0.568641 0.652055 -0.025097 -0.314784 0.685175 -0.157172 -0.088460 0.081890 0.342583 0.890945 -0.060888 -0.184497 -0.334116 0.583474 0.983571 0.605693 0.082254 -0.674316 -0.058766
programming -0.910972 -0.547480 0.619386 -1.013441 -1.213767 -0.549154 0.067747 -0.211298 0.005984 1.068314 0.898033 0.708956 -0.184135 0.179334 1.033042 -0.123733 0.283910 0.473954 -0.385357 0.866947 -0.274817 -0.358901 0.998572 1.054572 -0.283874 -0.218923 -0.214030 -0.096497 -0.030434 0.099434 0.305766 -0.862341 -0.026425 -0.606191 1.315701 -0.239447 -0.878388 -0.313354 0.159079 0.002237 1.154618 -0.262213 0.065631 0.224686 -0.097282 -0.416896 -0.129124 0.068436 0.312808 -0.831115
used -0.209533 -0.328420 -0.608972 -0.081309 -0.622543 -0.546491 -0.083129 -0.095937 0.539179 0.694034 0.524320 0.874052 0.013555 -0.433175 1.172179 0.260832 -0.948850 -0.077085 0.477589 1.064280 -0.528177 0.876144 0.851681 -0.321894 -0.081262 0.618504 0.722504 -0.025863 0.116991 -0.215589 0.485858 -0.103080 0.650228 -0.415315 -0.023478 -0.121265 -0.141337 0.324280 1.284627 -0.314908 0.834632 -0.504282 -0.647533 0.305034 0.265847 0.589846 -0.312901 0.392420 -0.543177 0.402473
which -0.141450 -0.658247 0.150455 -0.177113 -0.237944 -1.091259 -0.154596 -0.427048 -0.671101 0.481352 0.474233 0.053682 -0.207012 -0.939939 0.742730 0.326016 0.199735 0.715543 0.600171 0.723094 -0.326287 -0.024609 0.445226 0.199757 -0.116881 0.546605 0.275360 -0.613885 0.152778 0.315807 -0.348489 0.023493 0.856378 -0.046984 0.866758 0.057475 -0.227078 0.106605 0.316459 -0.264458 1.026065 0.462673 0.035866 -0.057303 0.012464 -0.225386 -0.382601 -0.464456 -0.346955 -0.034327
an -0.739280 -0.727742 0.341253 -0.824670 -0.332855 -0.672798 0.834524 0.795292 0.402466 0.408217 1.126654 -0.088436 0.086485 0.405789 1.365902 -0.001687 -0.729442 -0.454284 -0.574068 -0.240704 0.729178 -0.382524 0.601753 0.835467 -0.719730 0.257972 0.817954 -0.215194 -0.055498 0.451063 -0.032956 -0.471807 0.349275 -0.323810 0.770243 -0.166803 -0.414067 1.006515 0.923373 -0.202871 0.246694 -0.242457 -0.476553 -0.615293 0.583248 -0.933444 -0.154144 -0.468784 0.187034 0.169543
vector 0.817554 1.304417 -0.392518 -0.159359 -0.400202 -0.278693 -0.425561 -0.731095 -0.194183 -0.823500 0.395078 1.047504 0.499929 0.006165 0.193428 1.173318 0.095000 0.161045 0.295762 -0.248994 -0.413479 0.299566 -0.022080 0.341787 -0.984181 0.432735 0.446798 -0.498782 0.751959 0.048349 0.439370 -0.742401 0.429583 -1.052020 1.024810 -0.450246 -0.845801 0.289630 0.286054 -0.567954 0.128144 0.024892 -0.017264 -0.502760 1.343089 0.611878 -0.000914 -0.903230 -0.168485 0.633664
pagerank 0.414718 -0.225585 0.225824 0.034570 0.239066 0.028208 0.313564 0.090817 -0.044221 0.335725 -0.116067 0.568268 0.043166 -0.194508 0.226093 0.111939 0.476895 0.961879 0.032273 0.131780 1.113474 0.497088 -0.036713 -0.354379 0.752203 0.444843 -0.121274 0.067144 1.077697 -0.991035 -0.002490 -0.024753 0.079828 -0.400363 0.087356 0.513228 -0.685149 -0.195116 0.178697 0.017952 0.792825 0.318846 -0.579558 0.446441 0.499548 0.109643 0.352961 0.139204 -0.574156 0.127699
term 0.074832 1.284677 -0.064968 -0.231059 -1.106170 0.018297 -0.718326 -0.332718 0.051972 -0.080161 -0.060757 0.943442 -0.150652 -0.348561 0.199194 0.392722 0.080565 0.600305 0.058054 0.201092 -0.036135 0.064452 -0.448822 0.555364 -0.130638 0.351867 -0.182549 -0.729105 0.241506 0.770753 0.075136 -0.518299 -0.405888 0.071940 1.254286 0.228781 -0.835923 -0.292205 0.192335 -0.129560 0.260636 0.503360 0.542737 -0.478896 0.791992 0.662037 0.025190 -0.548246 0.199779 0.168806
on 0.199950 0.338799 -0.225003 0.161680 -0.109984 0.258856 0.130784 0.091899 0.875211 -0.006225 -0.391122 0.325614 0.732461 0.317196 0.488401 0.190866 0.258897 0.512079 0.265133 -0.001897 0.688597 0.345429 0.047377 -0.242872 0.725928 0.517285 -0.648586 0.046436 0.540938 -0.395221 0.287843 -0.912787 -0.095990 -0.417438 0.715433 0.306228 -1.041755 -0.011786 0.018727 -0.685392 0.612610 0.175836 -0.367823 -0.334766 0.938588 0.070474 0.856319 0.512394 -0.705352 0.463639
from -0.302127 0.330246 0.436348 0.098546 -0.376603 -0.655295 -0.131096 -0.339214 0.644295 0.263576 -0.209706 0.330488 0.378461 -0.176913 -0.111904 -0.326705 0.196978 0.546559 -0.204368 -0.256161 0.674914 -0.033374 0.465718 0.534397 0.819384 0.769857 -0.036152 -0.238095 0.450545 -0.290788 0.364659 -0.419488 -0.022732 0.145624 1.031770 0.553632 -0.707784 0.447497 -0.254844 -0.136107 0.573696 0.198077 -0.384036 -0.110502 0.830383 0.195441 0.684933 0.336727 -0.296020 -0.130081
classes 0.250131 -0.404658 0.088404 0.236379 0.414538 -0.834294 -0.069683 -0.150814 -0.984690 0.009995 0.650920 -0.535135 -0.067865 -0.153092 -0.532285 0.638941 0.759396 0.142295 0.287523 -0.037772 0.268775 -0.204370 0.063110 -0.323359 -0.004360 0.994444 1.040608 -0.704143 -0.157030 -0.209023 0.175874 0.697873 1.027772 0.452913 0.682349 0.312400 0.337147 0.340752 0.104176 0.587292 0.221609 0.817195 -0.085301 0.201273 0.452829 0.195469 -0.537016 -0.494521 -0.450413 0.851701
h0k 0.353209 0.255189 -0.061943 0.461415 0.226405 0.884430 -0.503163 0.099198 0.667072 -0.616779 -0.354256 -0.445696 -0.125578 0.243518 -1.058898 -0.533567 -0.004078 -0.275384 0.118323 -0.572287 -0.662791 -0.471128 -0.114329 -0.256282 0.363003 -0.738471 -0.658007 1.075058 -0.236879 0.766395 0.110559 0.188807 -0.462248 0.893662 -0.775486 -0.284089 0.652222 -0.262114 -0.825762 -0.066911 -0.473382 -0.311244 0.362364 0.130347 -0.654903 -0.170233 0.465467 0.207858 0.113304 -0.217765
he 0.614615 0.117302 -0.329627 0.746620 0.177412 0.679822 -0.906374 0.109662 1.189908 -0.657056 -0.201068 -0.253410 0.165768 0.319098 -1.094333 -0.333325 0.205257 -0.183029 0.417806 -0.732204 -0.715643 -0.610665 0.305569 -0.183120 0.654271 -0.515503 -0.590007 1.669554 -0.090284 1.088605 0.197976 0.098911 -0.064137 1.171939 -0.741453 -0.357897 0.492057 0.042759 -0.997446 -0.490893 0.275238 -0.395613 0.168569 0.142403 -0.325638 -0.151007 0.870681 0.242420 -0.292162 -0.016431
all -0.757379 -0.261973 0.180426 0.007543 -0.021301 -1.320591 -0.013619 -0.276529 0.294576 0.399048 0.225296 0.295614 0.381939 -0.500252 0.210309 -0.357321 0.085314 0.275051 0.184122 -0.419517 0.372037 -0.415126 0.579904 0.315332 0.172081 0.501913 -0.464620 -0.151643 0.252255 0.011330 0.261467 -0.189565 0.286750 0.326540 0.748812 0.185205 -0.566420 0.343994 -0.367738 -0.425380 0.850849 0.003312 0.065316 -0.412385 0.164471 -0.042462 0.551292 0.679261 0.020428 -0.121689
has -0.222334 0.063154 0.780220 -0.311287 -0.548879 -0.644178 0.065003 -0.579413 0.071496 0.802359 0.714783 1.201507 -0.003015 -0.518232 0.490297 0.361932 0.454914 0.914028 0.050778 0.372085 0.032425 0.343246 0.220638 0.369955 0.152101 0.067066 -0.205684 -0.092959 0.658803 0.251717 0.434808 -0.055348 -0.054595 -0.116681 0.535252 0.458445 -0.502505 -0.464132 0.141888 0.291587 0.963488 -0.316601 -0.493218 0.279172 0.440974 0.233893 0.195552 0.084808 -0.636425 -0.710425
theorem -1.271787 -0.601726 -0.927494 0.357190 -0.365034 -0.887983 0.484701 0.366370 0.340814 0.687933 0.168786 0.273460 0.334074 -0.328837 1.083101 0.131163 0.293901 -0.276963 -0.026960 0.878784 0.502594 0.994892 0.506001 -0.037841 0.238336 0.015009 -0.356919 -0.085962 0.023876 0.185576 -0.092216 0.439918 0.727059 0.409162 0.021558 1.035416 0.275860 -0.585547 0.816685 0.650146 0.675319 -0.351409 -0.218859 0.202453 -0.137403 0.693605 0.036992 0.110318 -0.925655 -0.586100
with -0.021302 -0.603157 0.282559 0.246112 -0.301447 -0.021227 -0.178765 0.031254 -0.464391 0.034391 -0.717199 -0.298161 -0.035053 0.154468 0.019503 0.152433 0.338171 -0.218238 -0.246013 -0.153601 0.226129 0.135425 0.226962 -0.236167 0.345088 1.210850 0.558255 -0.084760 0.511059 0.380653 -0.205246 -0.173250 -0.391579 -0.791516 0.002344 0.042550 0.019656 0.371069 0.208952 0.161079 0.587506 0.513879 -0.369482 -0.813988 0.314166 -0.456912 0.260556 -0.019027 0.499639 -0.160890
have -0.457776 -0.446320 0.436615 -0.019878 0.709439 -0.460345 -0.128287 -0.020425 -0.729648 0.740586 0.945306 0.581017 -0.858832 -1.110600 0.597923 0.035516 -0.604995 0.831774 0.924397 0.104561 -0.279978 -0.289789 -0.793353 -0.920612 0.046911 0.703800 0.095528 -0.610405 -0.042904 0.423515 -0.016980 0.079472 0.268425 0.893843 -0.323644 0.555750 0.134326 0.305879 0.405946 0.116734 0.397931 0.675258 0.216541 -0.359063 0.344496 0.226396 -0.289648 0.074126 -0.216390 0.490874
page 0.140045 -0.301311 1.009156 0.035044 -0.070557 0.087224 0.254215 0.034472 0.478650 0.301868 -0.274985 0.494598 0.219587 0.073748 0.295980 -0.228080 0.155979 1.049399 -0.464480 0.035090 0.982733 0.441227 0.241378 -0.248577 0.585439 0.472809 -0.122855 -0.141617 0.603392 -0.572895 0.005951 -0.495366 0.026866 -0.263794 0.177826 0.248841 -0.499506 0.350030 0.433337 -0.149280 0.686669 0.430535 -0.925949 0.523198 0.564512 -0.039135 0.467865 0.261264 -0.387781 0.519742
ubx 0.386296 0.246859 -0.114907 0.528848 0.252989 0.833504 -0.543181 0.134842 0.769178 -0.670049 -0.273707 -0.506092 -0.086102 0.228217 -1.089660 -0.467098 0.098316 -0.264326 0.123102 -0.586781 -0.636508 -0.493297 -0.096397 -0.250131 0.387410 -0.788695 -0.680458 1.120962 -0.313954 0.792317 0.184283 0.219206 -0.377547 1.038175 -0.737877 -0.268370 0.652409 -0.264100 -0.878480 -0.058937 -0.360347 -0.352355 0.290015 0.217766 -0.621794 -0.110565 0.546345 0.156096 0.027857 -0.179396
document 0.480278 0.859754 -0.610322 -0.145109 -0.609743 -0.028877 -0.434190 -0.412141 -0.266262 -0.614194 -0.347952 0.542383 0.356765 -0.036754 0.087716 0.737759 0.118775 0.125899 0.159344 0.131427 -0.599979 0.137152 -0.074957 0.205366 -0.443447 0.153696 0.057629 -0.332162 0.668064 -0.005275 -0.231288 -0.505417 0.112878 -0.948625 0.848183 -0.352455 -0.688327 -0.000572 -0.112940 -0.437409 0.125015 -0.066281 0.279222 -0.513201 0.727636 0.323450 0.089409 -0.353120 0.061927 -0.052954
one 0.507357 0.020243 -0.040596 0.309477 -0.241528 -0.900840 -0.139584 -0.251169 -0.097649 0.761267 -0.352792 0.338182 -0.384938 -0.334747 0.186295 -0.067539 -0.336025 -0.122328 0.479032 0.188986 0.226251 0.263787 -0.492488 0.959146 0.061809 0.600198 1.003921 -0.556462 0.200240 -0.145802 -1.009999 -0.082454 0.416908 -0.307406 -0.100898 0.340116 0.192163 0.692992 -0.121871 -0.027426 0.153399 -0.063271 -0.260963 0.822099 0.550891 -0.296280 -0.759073 -0.203690 -0.529445 -0.374233
06 0.007838 0.031910 0.332976 0.090652 0.246594 1.101302 0.274888 -0.002533 -0.001307 -0.245802 -0.595650 -0.674716 -0.285598 0.154280 -1.215735 -0.738355 -0.122888 -0.714429 -0.229665 -0.159019 -0.175021 -0.552247 -0.631071 -0.280539 -0.039198 -0.748916 -0.491925 0.507097 -0.494708 0.294446 -0.235503 0.274033 -1.022722 0.535523 -0.805745 -0.219586 0.501500 -0.567789 -0.445326 0.080229 -1.039012 -0.403217 0.559274 -0.088065 -0.431772 -0.466077 -0.297109 0.242817 0.795970 0.206716
bayes -1.109949 -0.316494 -0.996796 0.722195 -0.110409 -0.731024 0.285540 0.273491 0.246666 0.475096 -0.005282 0.157536 0.028369 -0.445133 0.747364 0.094781 0.492834 -0.338088 -0.033493 0.600544 0.527639 1.030606 0.189670 -0.121104 0.201692 -0.157915 -0.194725 -0.082858 -0.063508 0.207161 -0.273664 0.701402 0.735271 0.635119 -0.250843 1.065476 0.650516 -0.841263 0.664531 0.959245 0.340578 -0.294655 -0.112931 0.476859 -0.328202 0.831674 -0.259403 -0.044953 -0.902734 -0.528995
inheritance -0.341217 -0.452406 0.119440 -0.172801 -0.453947 -0.593489 0.381067 0.377596 -0.240022 0.493294 0.007437 -0.426679 0.037240 0.060600 0.943156 0.298753 0.455007 0.093861 -0.405509 0.546809 0.335896 0.024331 0.211727 0.709887 -0.095008 0.391928 0.517313 -0.654267 -0.223251 -0.041059 -0.449132 0.085521 0.206343 -0.274505 0.746655 0.538758 -0.383837 -0.107716 0.305701 0.574648 0.627614 0.148990 -0.339260 0.269477 0.240492 -0.151946 -0.132030 -0.074712 -0.337097 -0.579677
problems 0.372404 -1.005699 0.240132 -0.703359 0.115326 -0.147077 0.155221 0.396532 -0.603798 1.070239 0.774297 0.418258 -0.301446 0.377108 0.368207 -0.094112 -0.429252 0.262056 1.050212 0.167333 -0.641316 -0.207302 0.240311 -0.082373 -0.346611 0.395663 0.181654 -0.043443 -0.024405 -0.540743 0.015134 -0.728048 0.623022 -0.994153 -0.021089 -0.554620 0.046908 -0.013593 0.390214 -0.149777 0.703741 0.387461 0.306425 0.356464 0.079463 -0.617373 -1.052991 -0.057050 0.276925 0.525944
documents 0.053508 -0.103239 0.124999 0.079113 0.099482 -0.384090 -0.283745 -0.585162 -0.572054 -0.728419 0.205828 0.204044 0.132417 -0.184039 -0.202300 0.345858 0.005466 -0.369496 0.031756 -0.750668 -0.247280 0.057755 0.188928 -0.272743 -1.000596 0.900631 0.329483 -0.190130 0.376111 0.567927 0.268677 -0.221304 0.040610 -0.465149 0.257083 -0.574191 0.254961 0.400702 0.358432 -0.296716 0.157266 0.560736 -0.117918 -1.038999 0.163901 0.044943 0.211758 -0.442189 0.460043 0.382337
optimal 0.109707 -0.837167 0.117810 -0.920143 0.268900 0.294250 0.471242 0.644758 -0.201245 0.598150 0.323460 -0.020851 0.182799 0.650236 0.775080 -0.250314 -0.669767 0.001204 0.379793 0.011677 -0.402985 -0.314554 0.279273 -0.670234 0.046225 0.427854 0.135827 0.205128 0.590868 -0.505445 -0.690060 -0.824957 -0.056735 -1.156040 -0.048667 -0.517766 -0.444106 0.558678 0.425507 0.089256 0.352885 0.411796 0.076708 -0.723379 0.316044 -0.676535 -0.003074 0.008720 0.461640 0.386201
each 0.575706 0.713606 0.009533 -0.430617 -0.349429 -0.139061 -0.480753 -0.597483 -0.225356 -0.427116 -0.271303 0.864507 0.206186 0.125999 -0.230083 0.174139 -0.309210 0.333826 -0.102749 -0.162218 -0.326650 0.406398 -0.407876 -0.047206 -0.678016 0.236159 0.002396 -0.328371 0.827204 0.128758 0.042866 -0.971576 -0.022499 -0.905062 0.267361 -0.276990 -0.561981 0.510274 0.215347 -0.670970 -0.152108 0.121382 0.051675 0.201223 0.788018 0.481129 -0.002703 -0.134108 0.108315 0.261071
information -0.123586 0.203591 -0.724569 0.198497 -0.229969 -0.560781 -0.182666 -0.938167 0.090732 -0.069224 0.213055 0.745955 -0.018900 -0.514141 0.293628 0.226954 -0.029596 -0.803850 -0.283365 0.538092 -0.692942 -0.131695 0.429435 -0.187956 -1.331139 -0.089981 -0.263416 -0.297821 -0.231471 -0.617200 0.470844 -0.284982 0.042650 -0.065258 -0.588875 -0.920480 -0.297090 -0.067615 -0.137515 -0.507603 0.144823 -0.974804 -0.404206 0.460880 -0.043694 0.562189 0.012819 0.894182 0.172491 -0.291779
probabilities -0.636692 -0.885540 -0.571580 -0.279248 -0.037168 -1.043055 0.501065 -0.733706 -0.370692 0.238620 -0.052430 0.318954 0.720342 -0.326093 0.174493 0.084198 0.005341 -0.654750 0.260394 0.773074 -0.658117 0.884974 0.650812 -0.462993 -0.812226 -0.293416 -0.465898 0.670978 0.334172 0.790992 -0.146088 0.635358 0.787085 0.191860 -0.760065 0.324394 0.818504 -0.107569 0.838908 -0.526501 0.386350 -0.095235 0.292475 -0.239802 -0.575176 0.584390 -0.251300 -0.369774 -0.506620 -0.397417
space 0.473271 1.069121 -0.380573 -0.158633 -0.298393 -0.342782 -0.282769 -0.598925 0.132658 -0.647239 0.888517 0.702626 0.509784 -0.083153 0.314535 1.078885 -0.023608 -0.128243 0.271866 -0.323801 -0.412415 0.136944 0.340962 0.345009 -0.769576 0.506670 0.487178 -0.387121 0.223072 0.313175 0.867046 -0.539536 0.337921 -0.542135 0.959395 -0.494746 -0.633725 0.323997 0.295122 -0.528953 0.069166 -0.145458 -0.199712 -0.854773 1.031632 0.467493 0.227432 -0.885531 -0.206044 0.578382
google 0.353015 0.225177 0.001912 0.147066 -0.280017 0.145886 -0.050745 0.060944 0.485273 0.224485 -0.259591 0.509166 0.014710 -0.057552 0.101343 0.106266 -0.028269 0.730424 -0.230903 0.663009 0.833513 0.587636 0.116194 0.233638 0.828176 0.124487 0.365569 -0.016513 0.836217 -0.786280 0.014553 0.145931 -0.175422 -0.568996 0.626342 0.302915 -0.708573 0.041164 0.292072 -0.103820 0.472429 -0.288878 -0.662039 0.859949 0.162153 0.013331 0.297102 0.430086 -0.730844 -0.258022
model 0.122079 0.877590 -0.207094 -0.380279 -0.464489 -0.536284 -0.094430 -0.525176 0.258163 -0.582038 1.309628 0.868240 0.496687 0.156643 0.404524 0.947606 -0.135645 -0.465683 0.030280 -0.425364 -0.165185 0.064852 0.558127 0.688447 -1.092101 0.299135 0.586234 -0.215957 0.108122 0.617541 1.100861 -0.567204 0.391214 -0.381736 0.980798 -0.557732 -0.363146 0.503605 0.438710 -0.428671 0.017650 -0.227520 -0.335750 -0.726136 1.057178 0.435893 0.005079 -1.016869 -0.094939 0.478787
also -0.248700 -0.131678 -0.145417 -0.084496 0.114184 -0.959812 -0.197695 0.007968 0.031782 0.403851 0.887622 0.569547 -0.163374 -0.825413 0.967533 0.878659 0.294955 0.644750 0.087645 -0.151158 0.506332 0.414633 -0.171025 0.055020 -0.247684 0.058094 0.428641 -0.546240 -0.390865 -0.020004 0.394524 0.325176 0.420665 0.655931 0.052016 0.600781 -0.474387 -0.017825 0.575931 0.334025 0.752521 -0.119926 -0.429704 0.261060 0.789767 0.933616 -0.029335 -0.591224 -0.436574 0.471304
class -0.059257 0.107380 -0.238159 0.464756 0.249627 -0.603695 -0.012586 -0.199554 -0.165749 0.287997 -0.291868 -0.326625 0.016413 -0.408944 0.286570 -0.076848 0.064852 0.169628 0.092455 0.273838 0.435497 0.081604 -0.333958 0.449430 0.607139 0.443456 0.475300 -0.768304 0.006858 -0.711856 -0.652406 0.258801 0.377940 0.030034 0.629683 0.526851 -0.105555 0.285620 -0.444523 0.353057 0.027721 0.085392 -0.190630 0.320348 0.378536 -0.053020 -0.137897 0.261802 -0.604921 -0.347498
subproblems 0.515834 -0.602818 0.211979 -0.358547 0.529574 0.086796 0.071431 0.594139 -0.312806 0.642824 0.195044 -0.065914 0.203314 0.269741 0.334654 0.093879 -0.337539 0.330791 0.930316 -0.148292 -0.620530 -0.374979 0.236662 -0.732929 0.326996 0.601955 0.267300 0.055226 0.079213 -0.492432 -0.087636 -0.413084 0.465587 -0.712685 -0.304850 -0.255481 -0.079966 0.197786 0.136207 -0.164002 0.460719 0.296065 -0.083473 -0.192897 0.389469 -0.578475 -0.382642 0.403336 0.037758 0.829654
number 0.353170 0.149004 -0.056711 0.256077 -0.073462 -0.132565 0.204626 -0.242779 -0.327499 -0.283793 -0.388244 0.159715 0.571613 0.081979 0.131435 0.428308 0.625090 0.296405 -0.276977 -0.180411 0.595086 -0.109191 0.348944 0.087602 -0.224473 0.613481 -0.144604 -0.063786 0.835709 -0.292876 -0.447593 -0.227395 0.168754 -0.564441 0.099357 -0.229321 -0.805355 0.003435 0.003385 -0.513062 0.396651 0.475086 -0.236261 -0.293728 0.195611 -0.202248 0.183809 0.317672 -0.088529 0.222011
terms 0.463206 0.360152 -0.344247 0.193227 -0.678356 -0.172535 -0.282714 -0.340179 -0.024869 -0.443853 -0.508876 -0.188675 0.515397 -0.511381 0.159824 0.410279 0.259582 0.180849 0.193836 -0.020947 -0.721257 -0.111931 0.461469 0.295169 -0.110477 0.589655 0.109765 -0.129056 0.194372 0.592102 -0.453965 0.057459 0.080914 -0.269519 0.602143 -0.432751 -0.627569 -0.223855 -0.169684 -0.670985 0.297351 0.199032 0.127104 -1.069057 -0.170703 -0.194801 0.139670 -0.023725 0.173160 0.085205
called -0.438704 -0.404909 -0.032741 0.130504 0.244691 -0.876866 0.265874 0.300173 0.014065 0.112739 1.214132 -0.225707 -0.006000 -0.527834 0.968296 0.737288 0.971414 0.650865 -0.116380 -0.119437 0.663025 0.090044 0.622046 0.269456 -0.254385 -0.438094 -0.066964 -0.104561 -0.584614 0.126313 0.170418 0.450481 0.902510 0.900691 0.376881 0.504867 -0.182616 -0.717912 0.282039 0.608727 0.720964 0.015049 -0.458939 0.472768 0.014971 0.484678 -0.007436 -0.732005 -0.418439 0.327529
links 0.165386 -0.248945 1.464050 0.241388 0.068489 0.137778 0.251680 -0.114660 0.331525 0.173320 -0.504914 0.134776 0.094408 -0.049551 -0.180379 -0.612656 0.242333 1.233111 -0.346552 -0.526384 0.942051 -0.007369 0.017893 -0.366807 0.658096 0.879528 -0.370419 -0.297744 0.466413 -0.113668 -0.007343 -0.649512 -0.205110 0.090752 0.268177 0.278198 -0.378320 0.290494 0.117641 -0.077783 0.427625 0.956227 -0.759043 0.274700 0.381743 -0.344906 0.578424 0.302047 -0.199429 0.602968
given -0.760949 -0.797053 -0.578663 -0.204709 0.146983 -0.496368 0.996607 0.568587 0.356531 0.340740 0.505817 -0.094936 0.651887 0.308663 0.750204 0.373934 -0.034992 -0.366429 -0.145702 0.478029 0.540600 0.856148 0.293792 -0.408063 -0.197972 -0.283684 -0.366821 0.362969 -0.410145 0.103528 0.378307 0.326335 0.314686 0.223393 -0.700511 0.639790 0.178313 -0.000209 0.993116 0.346584 0.483153 0.199542 -0.419311 -0.027243 0.036822 0.939651 0.401955 -0.241900 -0.469018 0.145762
we -0.441899 -0.383349 -0.003024 0.142197 -0.079985 -0.058383 -0.348567 0.341245 -0.090758 0.816055 0.096088 0.005709 -0.241364 -0.530532 0.851128 -0.021287 -0.978894 0.456584 0.981465 0.433333 -1.264135 -0.003902 -0.090553 -0.654639 1.023269 0.909862 0.439904 -0.325629 -0.488310 0.611222 -0.012599 -0.173634 0.017067 0.192393 -0.122578 0.460882 -0.123932 0.221217 0.407251 -0.338757 0.187087 0.032160 0.155586 -1.067643 0.190231 -0.395085 0.365871 0.352571 -0.128431 0.098584
hhk 0.344037 0.302295 -0.049328 0.431920 0.233480 0.897772 -0.458303 0.094030 0.604447 -0.601685 -0.393826 -0.418309 -0.139938 0.220998 -1.025790 -0.529408 -0.052799 -0.267745 0.125695 -0.523466 -0.648344 -0.425292 -0.182065 -0.295900 0.370947 -0.714819 -0.631175 0.985219 -0.212636 0.646877 0.089840 0.174450 -0.518072 0.802715 -0.763425 -0.269583 0.631788 -0.256139 -0.803353 -0.022370 -0.537400 -0.275506 0.360115 0.099010 -0.630017 -0.166315 0.411806 0.217416 0.136390 -0.215877
not 0.093455 -0.094836 -0.117432 0.006512 0.001221 -0.455745 -0.091279 0.014073 0.484365 0.593403 0.380398 0.163046 -0.041347 -0.475824 0.305482 0.296397 -0.524243 0.396986 0.405340 0.029032 -0.143486 0.138142 0.007789 -0.431382 0.475579 0.331815 0.235437 -0.363444 -0.514738 0.254162 0.988409 -0.302709 -0.036151 0.585159 -0.279181 0.259301 -0.435062 0.265643 0.022122 -0.569724 0.495693 -0.161202 -0.370218 -0.568595 0.565091 0.566630 0.126255 0.162017 -0.082512 0.638630
these 0.446671 -0.393091 -0.026046 -0.375414 0.346938 -0.064115 -0.178906 0.062488 -0.545208 0.361252 0.423245 0.346570 -0.022643 -0.023129 -0.027298 0.243613 -0.098565 0.082317 0.563360 -0.447837 -0.202507 -0.153238 -0.163452 -0.391310 -0.061937 0.309812 0.328942 -0.088628 0.313597 -0.288771 0.157459 0.049856 0.432562 -0.176191 -0.568997 -0.227004 0.024718 0.243730 0.145783 -0.052154 0.090190 0.166448 0.123379 -0.190185 0.367682 -0.069518 -0.522437 -0.209352 0.073892 0.576378
words 0.721411 0.487918 -0.268503 0.522855 -0.440592 -0.130381 -0.128251 -0.082490 -0.118965 -0.399871 -0.707697 -0.464151 0.904127 -0.123295 0.015478 0.464734 0.669291 0.268940 0.423589 -0.331216 -0.342718 -0.322477 0.729798 0.241085 0.412994 1.054980 0.257567 0.062001 0.369877 0.541016 -0.596259 0.208694 0.341046 -0.182357 0.351533 -0.002824 -0.515492 -0.216843 -0.251955 -0.424195 0.229973 0.601672 0.146814 -0.899407 -0.016313 -0.432449 -0.048394 0.276412 -0.116603 0.405059
problem 0.310065 -0.640257 -0.084423 -0.566896 -0.026113 0.224717 -0.204338 0.380895 -0.420022 0.814691 0.304390 0.127586 -0.247371 0.093911 0.583180 -0.007874 -0.745126 0.087081 0.932057 0.443716 -1.077755 0.166531 -0.100896 -0.341400 0.308898 0.294742 0.522406 -0.065865 -0.268949 -0.162419 -0.088719 -0.622691 -0.162004 -0.683723 -0.056212 -0.385326 -0.110739 -0.101087 0.412152 -0.100823 0.554430 0.085022 0.384468 -0.428778 0.052549 -0.452055 -0.260209 -0.447355 0.353562 0.197234
conditional -0.677044 -0.486970 -1.108569 0.265116 0.185080 -0.941534 0.745496 -0.284279 -0.013842 0.129703 -0.104733 0.506018 1.199863 0.088346 0.276446 0.540531 0.930955 -0.652810 0.037693 0.365719 0.524593 0.811394 0.665360 -0.370306 -0.213118 -0.354400 -0.747290 0.819340 0.470543 -0.305672 0.024712 0.658983 0.831533 0.162015 -0.659509 0.713070 0.362418 -0.372483 0.281325 0.086244 0.735979 -0.270344 -0.032135 0.023108 0.124939 1.130728 0.198621 0.096953 -0.846514 -0.232795
example -0.587320 -0.549377 -0.402565 -0.258740 0.071803 -0.241753 -0.076774 0.051384 0.370384 0.226915 0.729598 0.343472 -0.090364 -0.273880 0.825447 -0.025262 -0.930129 -0.181899 0.377133 0.256863 -0.073347 0.591399 0.187694 -0.118920 -0.486293 0.266035 0.222650 0.196036 -0.068912 0.570426 0.064583 -0.458368 0.197092 -0.004493 0.021961 -0.267559 -0.080465 0.582982 0.948587 -0.436899 0.483169 0.293343 -0.087855 -0.497695 -0.049602 0.234359 0.046534 -0.289403 0.098463 0.147421
other 0.316167 0.022071 0.297145 0.188741 0.096250 -0.242419 -0.117362 -0.269366 0.322342 0.317243 -0.375659 0.540531 0.357241 -0.138643 0.073977 -0.229184 0.019180 0.608235 0.190918 -0.123671 0.545627 0.169584 0.124711 -0.440766 0.484207 0.777450 -0.173788 -0.185923 0.636575 -0.727954 0.115220 -0.772879 0.176931 -0.351382 0.156160 0.174757 -0.647764 0.427053 -0.035768 -0.421478 0.485651 0.373518 -0.545725 0.296925 0.660992 0.110467 0.305118 0.564246 -0.359904 0.562177
between 0.316455 0.126039 -0.446682 -0.265694 0.227378 -0.301819 0.003151 -0.306724 -0.741257 -0.427372 0.260383 0.356522 0.417403 0.335397 -0.346981 0.468774 0.402527 0.025419 0.209836 -0.162090 -0.182456 0.225127 -0.103189 -0.300153 -0.569567 0.010367 -0.008012 0.061346 0.371752 -0.656182 0.034977 -0.267356 0.281877 -0.517922 0.191977 -0.153936 -0.062616 0.061732 0.065176 -0.207394 0.058427 0.160387 0.239366 0.166193 0.524617 0.656352 -0.266268 -0.209307 -0.089422 0.444974
more 0.185751 0.228463 -0.318649 0.278052 -0.081784 -0.265467 -0.519265 0.087063 0.493843 0.391760 -0.097414 -0.004756 0.048054 0.031539 0.122570 -0.018777 -0.169625 -0.504476 0.219898 0.259163 0.465851 -0.133162 0.208131 0.676764 0.732018 0.263588 1.070524 0.014276 -0.254927 -0.298808 -0.102046 0.046980 0.404540 0.111601 0.096196 0.191430 -0.222403 0.944209 -0.341543 -0.225572 -0.058861 -0.428322 -0.365401 0.263881 0.678545 -0.359527 -0.374456 0.062034 -0.442828 0.199852
new 0.172285 -0.318401 0.341102 0.063107 0.065102 -0.459046 -0.311096 0.071348 -0.412661 0.323598 0.401489 -0.314769 -0.263792 0.086333 -0.060656 0.285146 0.110267 0.008869 0.075405 0.434534 0.356467 -0.554623 0.302202 0.570048 0.289346 0.682212 1.391303 -0.588080 -0.080104 -0.439568 -0.248403 0.453732 0.942723 -0.088948 0.837496 0.117364 0.072314 0.818852 0.042216 0.153963 0.137629 0.121861 -0.259751 0.565749 0.519156 -0.637183 -0.732483 -0.103166 -0.377553 0.349304
may -0.245773 -0.326316 -0.145052 -0.088315 0.390966 -0.153718 -0.269493 0.183107 0.509234 0.461470 0.302152 -0.046164 -0.365727 -0.476311 0.368444 -0.380537 -0.879248 0.108909 0.464162 -0.010616 -0.210206 0.196839 -0.056578 -0.469948 0.334767 0.176855 0.399574 0.103695 -0.433134 0.397275 0.367610 -0.086176 0.026272 0.596922 -0.438815 0.080717 0.133405 0.508125 0.391883 -0.120371 0.210722 -0.118122 -0.010557 -0.051745 -0.066062 0.116915 -0.370663 0.195806 -0.012875 0.400950
value 0.180811 0.416846 -0.724934 -0.022322 -0.467438 -0.040861 0.121823 -0.067460 0.065665 -0.239814 -0.383900 0.279592 0.420783 0.097450 0.133690 0.475871 0.343698 0.043460 -0.072988 0.225846 0.466356 0.333937 -0.007168 0.146664 0.173292 0.130907 -0.414034 0.013922 0.780088 -0.431782 -0.330217 -0.164545 -0.019209 -0.678326 0.530231 0.151629 -0.669847 -0.058962 0.090703 -0.070379 0.251851 0.033604 -0.016922 -0.422517 0.628147 0.552953 0.567571 -0.173693 -0.163825 -0.216122
pages 0.315994 -0.273743 0.639304 0.386914 0.283402 0.096985 0.154883 0.108247 0.304604 0.280579 -0.645779 0.156563 0.308556 0.055021 0.001072 -0.346074 0.194614 0.885654 0.090314 -0.256927 0.864158 0.152305 0.164665 -0.666774 0.910343 0.891334 -0.312102 -0.020872 0.746774 -0.726565 -0.148853 -0.507917 0.077146 -0.348941 0.116431 0.318299 -0.469670 0.261969 0.036137 -0.190291 0.530897 0.704970 -0.617956 0.120215 0.409970 -0.262549 0.432944 0.592917 -0.334418 0.639122
where 0.378730 0.156378 -0.096179 -0.265924 -0.196160 -0.466435 0.023616 -0.308550 -0.295574 0.467375 0.160783 0.832065 0.030990 -0.087996 0.347595 0.245165 -0.169703 0.235920 0.593151 0.214238 -0.362876 0.430200 -0.317069 0.319599 -0.500501 0.264336 0.147622 -0.343890 0.504911 -0.120103 -0.336919 -0.665923 0.403397 -0.827820 0.355763 0.004745 -0.259145 -0.009325 0.279061 -0.140302 0.402947 0.093448 0.116435 0.302496 0.594080 0.093536 -0.565475 -0.412296 -0.293257 -0.052694
if 0.428557 0.823241 -0.169897 0.127052 -0.648220 0.119733 -0.637155 0.019687 0.174828 -0.001145 -0.409041 0.265260 0.332711 -0.298659 0.254347 0.282913 -0.145675 0.560422 0.510121 -0.006749 -0.576613 0.016927 -0.025464 0.050988 0.559386 0.832201 0.249753 -0.347451 0.119586 0.683218 -0.170981 -0.306610 -0.126411 -0.043032 0.601236 0.218217 -0.654631 -0.016977 0.072789 -0.458829 0.192759 0.462690 0.367651 -0.944828 0.523799 0.065187 0.149628 -0.154490 0.066740 0.451621
using 0.046383 -0.659797 -0.271079 -0.144107 0.391354 -0.151321 -0.139693 0.621853 -0.438049 0.539020 0.632309 -0.360700 -0.164314 0.074289 0.445613 0.208542 -0.031965 0.143986 0.583116 0.241996 0.045948 -0.266764 0.066091 -0.348064 0.388603 0.579505 0.802929 -0.500837 -0.060293 -0.464647 -0.322971 0.129622 0.643197 -0.170970 0.260820 0.081204 -0.145088 0.208925 0.150958 0.244357 0.356717 0.473895 0.125945 -0.226691 0.227207 -0.595762 -0.174550 -0.374289 -0.174281 0.402318
web 0.274645 -0.206230 0.393721 0.284644 0.085238 0.347860 0.087970 0.110333 0.133466 -0.016734 -0.739695 0.093397 0.160335 0.193946 0.010785 -0.018273 0.438598 0.579294 -0.302009 -0.116568 0.748233 0.436884 -0.076384 -0.594126 0.403918 0.488461 -0.312085 0.064938 0.861034 -0.708514 -0.396118 -0.401497 -0.332022 -0.778097 0.235918 0.011629 -0.324972 0.110599 0.124395 0.144804 0.537724 0.501454 -0.567200 -0.030288 0.200293 0.044904 0.584553 0.220713 -0.036078 0.254369
any -0.368165 -0.678363 0.012820 -0.172926 0.153544 -0.664762 0.305855 -0.267089 0.023866 0.272374 0.322270 0.280396 0.302697 -0.099407 0.272236 0.128013 0.068382 -0.345899 -0.282996 -0.016797 0.182823 0.088181 0.291902 -0.340243 -0.602182 0.164400 -0.020043 -0.067990 -0.224759 0.061488 0.532843 -0.071812 0.104907 0.164904 -0.678381 -0.094255 0.006709 0.233431 0.357057 -0.223949 0.430838 -0.028368 -0.410436 0.080295 0.126893 0.312041 0.127389 0.265653 0.039447 0.257169
events -0.589613 -0.961398 0.335858 -0.562028 0.005471 -1.228994 1.042370 -0.851195 -0.123885 0.382640 0.438094 0.776214 0.883043 0.198862 0.077560 -0.146136 -0.174209 -0.687515 -0.461676 0.215828 0.287640 0.683216 0.819215 -0.051553 -0.990476 -0.393962 -0.396476 0.870864 0.434510 0.348575 0.362532 0.237556 0.508724 0.278247 -0.723005 0.250702 0.477920 0.304924 0.754086 -0.927460 0.367786 -0.275468 -0.415539 0.129235 -0.169970 0.425982 -0.018781 -0.042510 -0.260158 -0.112242
its 0.187938 0.351281 -0.235960 -0.214135 -0.624571 -0.103509 -0.091704 -0.258633 -0.026414 -0.093221 -0.511401 0.271601 -0.075567 -0.093657 0.256334 0.306567 -0.028558 0.147820 -0.266944 0.185110 0.117114 0.095403 0.023916 0.436148 -0.035151 0.125265 -0.058341 -0.177719 0.616931 -0.156155 -0.381241 -0.245634 -0.319373 -0.674105 0.420307 -0.089843 -0.657205 0.277852 -0.066924 -0.214695 0.065152 -0.118920 -0.135277 -0.290645 0.534062 0.234008 0.506515 -0.039170 0.145516 -0.470050
methods 0.226209 -0.007698 0.045299 0.281248 0.050269 -0.436200 -0.566064 -0.018462 0.089515 0.223541 -0.133098 -0.146367 0.068332 0.203159 -0.261348 0.070052 0.021704 -0.604208 0.047643 0.118331 0.419860 -0.777626 0.512847 0.890734 0.562654 0.497262 1.497412 -0.043144 -0.008991 -0.521645 -0.355371 0.531930 0.940475 -0.135392 0.220316 0.080765 0.195977 1.267809 -0.417039 -0.335367 -0.135148 -0.603201 -0.325248 0.621922 0.788681 -0.900793 -0.899461 0.491523 -0.472365 0.168934
object -0.354934 -0.224670 0.366772 -0.551161 -0.937207 -0.451428 -0.011555 -0.131444 0.130167 0.676042 0.097135 -0.004488 -0.097014 0.090551 0.519622 -0.108363 -0.024808 -0.212770 -0.645528 0.592240 -0.309166 -0.280042 0.331798 1.041218 -0.519988 0.156297 0.630435 -0.243739 -0.124133 0.722288 -0.038694 -0.579250 0.098605 -0.162538 0.850759 -0.040631 -0.416019 0.276467 0.192885 -0.237960 0.509083 -0.492202 -0.059851 0.105337 0.055823 -0.587455 -0.335553 -0.251164 0.146166 -0.669060
about 0.431223 0.139034 -0.130540 -0.111828 -0.094211 -0.186396 -0.695104 -0.225620 -0.134935 -0.201228 -0.322976 0.284056 -0.264321 -0.483624 0.289247 0.110313 -0.316818 0.429598 0.366255 0.251624 -0.428454 0.008162 -0.246256 0.034192 -0.081425 0.084332 -0.011096 -0.549533 0.023805 -0.066930 -0.294898 -0.322146 0.121628 -0.421102 -0.087757 -0.266291 -0.173327 0.398221 -0.084861 -0.382907 0.256934 -0.085560 0.033573 0.241371 0.284713 0.036882 0.051691 0.003196 0.048939 0.063440
algorithm 0.034839 -0.215482 -0.013498 -0.083006 -0.092586 0.071741 0.244193 0.509796 0.603983 0.355539 0.187405 0.210376 -0.188119 -0.081686 0.702161 -0.077583 -0.391003 0.521575 -0.266027 0.557600 0.987093 0.679102 0.124573 0.081033 0.599276 0.072994 0.665797 -0.111685 0.081876 -0.694707 0.426676 0.101552 0.131219 -0.109165 0.248533 0.430138 -0.359819 0.308988 0.706745 0.082761 0.536086 -0.258473 -0.732500 0.916238 0.198517 0.045787 -0.063223 0.187452 -0.599096 0.177421
solutions 0.450610 -0.754374 0.284083 -0.614009 0.186842 0.132028 0.162432 0.397562 -0.214023 0.849941 -0.006137 0.081517 0.015287 0.240226 0.510580 -0.317369 -0.856255 0.308600 0.741837 0.101430 -0.654128 -0.025233 0.150864 -0.783163 0.447312 0.726978 0.442324 0.090366 0.554274 -0.334537 -0.527808 -0.585233 0.138269 -0.972464 -0.311685 -0.265350 -0.200380 0.487370 0.459283 -0.097292 0.324974 0.389370 -0.005972 -0.347543 0.276651 -0.570388 -0.305350 0.100980 0.177664 0.586022
sub 0.784454 -0.695460 0.032873 -0.393740 0.482286 -0.054215 -0.192026 0.283956 -0.544447 0.733044 0.186559 0.071932 -0.045116 0.200652 -0.156978 -0.006346 -0.385465 -0.079942 1.083521 -0.155774 -0.860949 -0.150387 -0.020363 -0.457118 0.106541 0.250169 0.500973 0.083138 -0.373324 -0.500136 0.285892 -0.309363 0.465227 -0.363743 -0.740624 -0.431611 0.413132 0.045078 0.002292 -0.424004 0.378146 -0.032323 0.246457 0.318008 0.181744 -0.419669 -1.020469 0.138044 0.179601 0.863804
dynamic -0.802440 -0.632226 0.240157 -0.805743 -0.922491 -0.604860 0.170232 -0.467080 -0.357953 0.649854 0.675170 0.615435 -0.008616 -0.051694 0.803210 0.058173 0.357316 0.182667 -0.350471 0.751666 -0.467880 -0.178395 0.821971 0.681245 -0.701757 -0.309570 -0.402987 -0.011067 0.276750 0.249824 0.044887 -0.447591 -0.022488 -0.592715 0.743021 -0.359922 -0.523224 -0.356525 0.224029 -0.128456 0.879934 -0.327796 0.119920 0.083637 -0.330674 -0.209442 -0.148210 0.003744 0.246571 -0.890582
into 0.413256 -0.441662 -0.489210 -0.237508 0.479343 0.079675 -0.137435 0.320505 -0.135822 0.564427 0.072519 -0.110190 0.160174 0.222443 0.051777 0.125191 -0.338073 -0.476980 0.731071 0.062010 -0.544003 -0.065891 -0.055859 -0.312443 0.228486 -0.098285 0.607946 0.199498 -0.695765 -0.528649 0.354392 -0.088651 0.186674 -0.057814 -0.895143 -0.202263 0.310860 0.044470 -0.067372 -0.476233 0.161762 -0.374341 0.186892 0.042628 0.152240 -0.193715 -0.750940 0.228212 0.109354 0.552444
many 0.216652 -0.287532 0.676319 0.322129 -0.004094 0.030944 -0.181994 -0.236725 -0.027807 0.205499 -0.564901 0.042495 -0.206269 -0.216004 -0.057708 -0.562649 -0.314475 0.357948 0.224871 0.133077 0.149284 -0.097086 -0.037416 -0.146343 0.252358 0.485051 -0.275421 -0.176954 0.363047 0.074190 -0.318963 -0.484369 0.154231 -0.221239 -0.090020 -0.017623 0.188781 0.178487 0.168904 -0.425065 0.128355 0.381506 -0.187965 0.341730 -0.010162 -0.417389 -0.100146 0.114621 0.075999 0.091601
means -0.396304 -0.790495 0.027748 -0.583294 -0.126099 -0.008803 0.582510 1.284504 0.125362 0.587694 0.768620 -0.479678 -0.014705 0.632147 1.109573 0.074637 -0.245376 0.073782 -0.398883 0.370159 0.627214 -0.574542 0.389755 0.178832 0.128310 0.260643 0.246728 -0.431053 -0.260061 -0.456622 -0.291200 -0.230124 0.031775 -0.580178 0.330122 -0.052726 -0.698920 0.155071 0.405428 0.009522 0.435341 0.104692 -0.389545 -0.360184 0.111716 -0.948904 0.253108 0.096875 0.175511 0.135343
at -0.841681 -0.525434 0.604099 -0.629215 -0.469048 -0.857052 0.639827 -0.428977 0.342925 0.496425 0.571069 0.651822 0.424364 0.074476 0.616122 -0.287100 -0.047590 0.045293 -0.605760 0.049521 0.428013 -0.074110 0.715539 0.498938 -0.457260 -0.242772 -0.539468 0.220327 0.227105 0.247093 0.378582 -0.477150 -0.073797 0.079440 0.408557 0.043337 -0.545371 0.193587 0.307722 -0.501130 0.652815 -0.257756 -0.251848 -0.080569 0.136851 -0.006944 0.457603 0.237504 0.053302 -0.315790
method -0.073881 -0.456770 -0.185243 -0.636689 -0.115074 -0.026760 0.209393 0.234377 -0.270731 0.469893 0.596344 0.244611 -0.131434 0.278961 0.673945 0.104888 0.226019 0.044818 0.289300 0.347916 0.011538 -0.276075 0.304494 0.248015 -0.382273 -0.281494 -0.306664 0.096844 0.099183 -0.575610 -0.192383 -0.601328 0.133535 -0.736695 0.347869 -0.494319 -0.681711 -0.067443 -0.025167 0.056564 0.663119 0.177560 0.187420 0.077733 -0.103794 -0.310567 -0.123130 -0.144073 0.303695 -0.074679
two -0.045517 -0.633267 -0.274275 -0.094190 0.288007 -0.927215 0.397495 -0.650599 -0.482811 -0.009314 -0.046125 0.356507 0.855110 -0.067044 -0.035487 0.234238 0.102010 -0.444157 0.311513 -0.047685 -0.276673 0.520198 0.575336 -0.398981 -0.599031 0.082338 -0.024363 0.763055 0.338557 0.287066 -0.192975 0.437966 0.727310 0.120714 -0.769927 0.185435 0.673153 0.124013 0.445356 -0.799636 0.336097 0.088255 -0.035401 -0.274387 -0.092512 0.334960 -0.292953 -0.025108 -0.281908 0.254811
known 0.436212 0.307063 0.040122 0.015669 0.137921 -0.505691 -0.406480 -0.080952 -0.405703 -0.051902 0.352786 0.563242 -0.470460 -0.572699 0.164164 0.788622 0.213929 0.517142 0.097409 -0.451916 0.568525 0.274673 -0.948421 0.143789 -0.619039 0.209177 0.559356 -0.911439 -0.315834 -0.183712 0.059335 0.211033 0.163644 0.386432 0.191788 0.222450 -0.214119 0.150836 0.251135 0.359926 0.305707 0.335392 -0.121546 0.488081 0.788868 0.770616 -0.208089 -0.824773 -0.131712 0.740982
search 0.251171 0.025842 -0.375133 0.203133 -0.032052 0.269863 -0.097140 0.443091 0.284843 0.045971 -0.392707 -0.310065 0.157052 0.118789 0.048996 -0.053846 -0.258127 -0.084192 -0.071110 0.372545 0.338253 0.111732 -0.066499 0.059395 0.665830 0.328734 0.590616 -0.110601 0.183254 -0.344552 -0.233959 0.143550 -0.175347 -0.347797 0.303328 0.190778 -0.315032 0.270636 0.123252 0.019431 0.013522 -0.050809 -0.180481 0.305688 -0.110157 -0.305760 0.070472 0.356905 -0.274651 -0.130008
computer -1.031296 -0.413684 0.426980 -0.495774 -1.157684 -0.610780 -0.130987 -0.703474 -0.003679 0.521581 0.397478 0.686048 0.062751 -0.005556 0.330360 -0.103865 0.351191 0.033091 -0.689094 0.649404 -0.341734 -0.255578 1.058417 0.920209 -0.289509 -0.360496 -0.332760 0.194313 0.265729 0.363062 0.494627 -0.199912 -0.296309 -0.239527 0.508722 -0.207363 -0.330711 -0.183671 -0.014548 -0.407272 0.679071 -0.765448 -0.052898 0.103010 -0.301526 -0.214851 0.024934 0.518352 0.288106 -0.997479
link 0.124501 -0.219876 0.293023 0.009007 0.155959 0.001783 0.235154 0.345348 0.485805 0.225222 -0.061114 0.132044 0.124554 0.031154 0.314440 -0.144399 -0.162651 0.602206 -0.259094 0.116666 1.091250 0.498911 -0.026740 -0.195282 0.517882 0.338894 0.256882 -0.234220 0.151983 -0.670357 0.378415 -0.114460 0.144207 -0.017543 0.131603 0.461691 -0.327933 0.485107 0.426148 -0.082480 0.373920 0.218509 -0.726275 0.751442 0.366257 0.010275 0.181400 0.205768 -0.564217 0.488603
objects -0.333476 -0.805289 -0.024452 -0.179123 0.292024 -0.809500 0.168258 -0.089543 -0.585014 -0.052939 0.863392 -0.119479 0.141253 -0.140220 0.231373 0.515117 0.458323 -0.098185 0.009481 -0.203185 0.177385 -0.123819 0.398900 -0.152089 -0.943258 0.290698 0.165906 -0.267429 -0.215481 0.236410 0.176103 0.210582 0.709404 0.176995 0.179556 -0.175270 0.093430 0.105155 0.437217 -0.031760 0.488059 0.476366 -0.134730 -0.100195 -0.045022 0.082213 -0.082752 -0.372548 -0.003685 0.380409
solution 0.105209 -0.272872 0.227721 -0.401434 0.076179 0.363255 0.130012 0.331331 0.227898 0.465276 -0.002998 -0.070637 -0.094957 0.271529 0.326033 -0.366921 -0.834741 0.118680 0.303511 0.057932 -0.399405 0.010213 -0.050032 -0.415181 0.621457 0.207081 0.281720 0.185144 0.096033 -0.216975 -0.346917 -0.360127 -0.276320 -0.287703 -0.218977 -0.066346 -0.062997 0.517982 0.282855 0.212495 0.030859 0.022211 0.027948 -0.367588 0.178207 -0.206923 0.103010 0.026728 0.233526 0.237785
was -0.314613 0.617400 -0.691406 0.069023 -0.689520 -0.000788 -0.281614 -0.305008 0.298189 -0.133096 0.099972 0.495499 -0.119723 -0.395016 0.412241 0.488537 -0.063322 -0.179219 -0.082213 0.647369 -0.232235 0.162931 0.360942 0.246725 -0.282075 -0.012066 0.066555 -0.379003 -0.111091 -0.273133 0.277974 0.197732 -0.056800 -0.070799 0.493219 -0.292403 -0.388565 -0.204317 0.279023 0.020465 0.124328 -0.430922 -0.031381 -0.155697 -0.003361 0.505592 0.024837 0.300078 -0.104445 -0.108675
8i 0.073359 0.031969 0.013689 0.040115 0.085697 -0.069486 -0.000610 0.013572 -0.087771 -0.060577 -0.028728 -0.052621 -0.026241 -0.015433 -0.006454 0.000334 0.028238 0.081977 -0.009343 -0.003281 0.147906 0.065928 -0.102948 -0.016601 0.018298 -0.075956 0.012670 -0.112883 0.163289 -0.190414 -0.015128 -0.045582 0.042436 -0.168876 0.048271 -0.001747 -0.079215 0.094728 -0.001432 0.132608 -0.010289 0.120559 -0.088338 0.161510 0.059065 -0.029973 -0.062470 -0.105934 0.039200 -0.015969
been -0.168942 -0.219645 0.697192 -0.101176 0.353955 -0.225319 0.114341 -0.229321 -0.694503 0.720863 0.824907 0.820982 -0.853944 -0.925963 0.231001 0.185969 -0.135947 0.909974 0.647692 0.268966 -0.173373 -0.005591 -0.751180 -0.487708 0.002073 0.137228 -0.073857 -0.337125 0.252889 0.127516 -0.061649 0.417830 0.007748 0.538820 -0.192034 0.491320 0.208160 -0.331686 0.169099 0.518568 0.433499 0.300519 0.072326 0.226055 0.061256 0.275092 -0.262614 0.073317 -0.379973 -0.143430
different -0.034665 0.045626 0.184331 -0.065673 -0.299167 0.242625 -0.287095 -0.358069 -0.269600 0.102662 -0.216481 0.400264 -0.400715 -0.315662 0.010050 -0.198207 -0.489989 0.212756 0.272657 0.299283 -0.223485 0.044738 -0.435181 -0.248395 -0.327705 0.261537 -0.577808 -0.169211 0.399062 0.654798 -0.147057 -0.513055 -0.300787 -0.228935 0.040819 -0.079055 -0.030517 -0.138838 0.467312 -0.386682 0.090295 0.473970 0.365303 -0.399356 -0.081384 0.200424 -0.106319 -0.344227 0.488746 0.001251
such -0.034370 0.053987 0.211149 0.081319 -0.067861 -0.458966 -0.036402 -0.250325 -0.138152 -0.457855 0.092798 0.410949 -0.032719 -0.250255 -0.033733 0.248183 -0.071626 0.161614 -0.253433 -0.710261 0.581130 0.333392 -0.284872 -0.046349 -0.847391 0.643001 0.231591 -0.434787 0.399937 0.254134 0.106920 -0.251790 -0.100347 -0.374019 0.632533 -0.260166 -0.309703 0.430790 0.568908 0.013042 0.226771 0.662061 -0.157221 -0.470467 0.205853 0.318326 0.339739 -0.395794 0.303742 0.543757
then 0.012368 -0.158046 -0.164122 -0.055449 0.067534 -0.350535 -0.624191 0.004928 0.023610 0.600772 0.203898 0.354118 0.006572 -0.443660 0.442151 -0.024545 -0.637556 0.137995 0.801296 0.141612 -0.689445 -0.016605 0.033030 -0.329118 0.419311 0.663102 0.607423 -0.248471 0.057854 0.069542 0.079548 -0.160489 0.397506 0.069537 -0.155245 0.085996 -0.103313 0.507261 0.125233 -0.526473 0.269677 -0.138108 0.056641 -0.235545 0.412555 -0.247320 -0.253305 0.255535 -0.225109 0.318233
8w 0.066586 -0.043858 -0.028553 -0.001469 0.032974 0.014473 -0.017452 0.083936 -0.047399 -0.054540 -0.015952 0.014516 0.065294 -0.071091 -0.005633 0.064161 -0.030723 0.017592 0.053599 -0.019758 -0.002615 0.043209 -0.121305 -0.053106 -0.093686 -0.049383 -0.026719 -0.117927 0.059686 -0.117700 -0.112655 -0.015778 0.058736 -0.134701 -0.047677 0.024943 0.056477 0.069467 0.041138 0.123919 -0.039738 0.029888 0.008607 0.015337 -0.041572 0.029837 -0.001410 -0.144103 -0.058529 -0.057486
8x 0.041061 -0.003667 0.129462 0.073658 0.169421 0.122844 -0.068826 0.093884 -0.035178 -0.251461 -0.004883 -0.277936 -0.188501 0.005113 -0.212159 -0.072861 -0.025258 0.017027 -0.016642 -0.164348 0.048306 -0.047602 -0.198684 -0.059747 0.023184 -0.348720 -0.218029 -0.090733 -0.047131 -0.041848 -0.001255 0.070414 -0.113780 0.079556 -0.155530 0.005967 0.228666 0.024780 -0.150890 0.256449 -0.290721 0.014568 -0.022868 0.199300 -0.244127 -0.068848 0.081816 -0.123363 0.043638 -0.118682
code 0.368281 -0.277129 0.231048 0.152255 0.044585 0.025446 0.336228 0.010939 -0.377191 -0.141108 -0.687586 -0.505613 0.057691 0.218293 -0.281619 0.047580 0.292115 -0.201769 -0.252556 -0.214158 0.330546 0.118465 -0.142659 -0.192597 0.073371 0.328316 0.119924 0.197885 0.362637 0.257353 -0.405529 0.087054 -0.152318 -0.406623 -0.424638 0.048231 0.176507 0.097700 0.017832 0.208986 0.014669 0.433175 -0.185871 -0.126318 -0.050654 -0.094395 0.037036 -0.074202 0.348219 -0.082574
up 0.139202 -0.160229 -0.289727 -0.057277 -0.206883 -0.106934 -0.462617 -0.146350 0.164950 0.356398 -0.167767 0.114517 -0.026740 -0.155274 -0.007085 -0.066850 -0.327691 -0.109095 0.521454 0.235957 -0.616567 -0.014111 0.391352 -0.000417 0.547778 0.105924 0.321853 0.316451 0.044618 0.004606 -0.244312 0.070187 0.168194 0.032409 -0.123839 -0.232105 -0.014607 0.365590 -0.146099 -0.101672 0.314347 -0.429094 0.128380 -0.112201 0.069013 -0.251656 -0.370247 0.367197 -0.035037 0.074338
values 0.513958 0.050601 0.304140 -0.124078 0.477108 0.096458 -0.142973 -0.121119 -0.525024 -0.108948 0.238323 0.430169 -0.312318 -0.207730 -0.365152 0.212777 0.094651 0.413770 0.345106 -0.647544 0.123710 -0.101509 -0.587463 -0.490101 -0.104812 0.211574 0.122499 0.002952 0.337869 -0.195548 0.118636 0.265945 0.115638 0.263858 -0.473742 0.136671 0.219215 0.080397 0.140053 0.328219 -0.088395 0.374099 0.059982 0.107367 0.322173 0.373619 -0.243809 -0.386627 0.062529 0.644833
8q -0.003191 -0.112668 -0.064126 -0.083200 0.039953 -0.196914 -0.018991 -0.102363 -0.056011 -0.025249 0.011548 0.008069 0.027532 -0.154772 0.112616 0.110502 0.024956 0.093115 0.147076 0.032837 0.002215 0.142796 -0.091416 -0.202177 -0.010619 0.085996 -0.121843 -0.110111 0.128771 -0.056676 0.031874 -0.083154 0.046305 -0.037744 0.054354 0.086731 -0.085832 0.044392 0.101964 0.078870 0.153329 0.038250 -0.020892 -0.065638 -0.003972 0.154341 0.087383 -0.080330 -0.069277 0.039389
retrieval -0.053314 0.481100 -0.715693 0.189518 -0.111741 -0.304587 -0.263891 -0.728768 -0.056483 -0.431390 0.184862 0.541541 0.071441 -0.398929 0.010073 0.411128 0.223264 -0.702514 -0.200755 0.303979 -0.680381 -0.145902 0.281280 -0.077406 -1.218994 -0.326711 -0.276943 -0.182611 -0.245303 -0.481957 0.435318 -0.032539 0.129253 0.066884 -0.243498 -0.697473 -0.082187 -0.288663 -0.330652 -0.362890 -0.051920 -0.904287 -0.131270 0.363324 -0.030478 0.551445 -0.052055 0.556314 0.095281 -0.255457
student -0.104183 -0.078657 -0.400593 -0.303882 0.315425 0.041822 0.346593 0.492667 -0.029422 0.057420 0.422045 0.082596 0.324346 0.248678 0.468781 0.257196 0.233676 0.056905 -0.038153 0.016355 0.519415 0.233728 -0.135432 -0.104584 -0.015430 -0.340329 -0.289688 -0.001111 -0.171998 -0.591851 0.231432 -0.093064 -0.027609 -0.092780 -0.069983 0.205739 -0.378456 -0.258608 0.095282 -0.114037 0.291182 0.148361 0.024424 -0.146011 0.157179 0.146184 0.307578 -0.340899 -0.172917 0.191793
time -0.054366 0.251619 -0.511379 -0.024342 0.233436 0.081852 -0.268483 -0.279462 0.205011 0.126914 0.093178 0.306108 -0.130485 -0.353804 0.217746 0.107228 -0.093259 -0.188225 0.441780 -0.010132 -0.206303 -0.055385 -0.044077 -0.312077 0.149042 -0.112454 -0.011837 0.218752 -0.089831 -0.300936 0.146651 -0.209362 -0.077719 0.057796 -0.207952 -0.245460 -0.356753 0.229626 -0.333274 -0.055280 0.053564 -0.107303 0.113909 -0.379413 0.013601 0.325949 0.180499 0.043534 0.052009 0.259423
way 0.103383 -0.325829 0.121451 -0.144936 -0.465153 -0.643580 -0.319279 -0.158250 -0.167473 0.465643 0.218382 0.147805 -0.197954 -0.357201 0.397890 0.147563 -0.065609 0.380796 0.160532 0.598117 -0.093515 0.165278 0.255088 0.419909 0.155528 0.393737 0.480387 -0.551988 0.056957 0.047488 -0.157783 -0.101422 0.409352 -0.094566 0.599351 0.055569 -0.255108 0.227053 0.301229 -0.122975 0.585094 0.068959 -0.245437 0.279039 0.259360 -0.047368 -0.162738 -0.373606 -0.269212 0.033885
will -0.217527 -0.413320 0.365713 -0.035931 0.236424 -0.074483 0.153785 0.107192 0.369910 0.507366 -0.014388 0.086195 -0.098503 -0.369296 0.475488 -0.315158 -0.258369 0.679259 0.014467 0.093027 0.430177 0.120742 -0.180040 -0.496369 0.502434 0.319039 -0.211175 -0.246307 -0.080675 0.048689 0.160462 -0.345075 -0.148220 0.397925 -0.135500 0.374873 -0.354272 0.266537 0.267086 -0.273454 0.453860 0.295638 -0.285208 0.000726 0.227298 -0.099050 0.268935 0.328879 -0.336416 0.254503
8e -0.006111 0.071816 0.090819 0.026683 0.061197 0.046445 -0.013817 0.066436 -0.045449 -0.076986 0.013415 -0.052562 -0.082113 0.067970 -0.055306 -0.036169 0.015502 0.027686 -0.019474 -0.055430 0.099281 -0.004890 -0.099161 0.035415 0.008622 -0.098473 -0.017501 -0.060905 -0.003100 -0.106591 -0.036385 -0.034350 -0.004150 -0.044609 -0.017656 -0.002063 0.040754 0.061841 -0.027294 0.097799 -0.156694 0.048909 -0.019508 0.140476 -0.032652 -0.099858 -0.029164 -0.059011 0.023560 -0.013740
8v 0.043260 0.156585 0.060428 0.064248 0.067416 0.104616 -0.020117 -0.010427 -0.101383 -0.168599 -0.014027 -0.163083 -0.025573 -0.024080 -0.099505 0.045699 0.060688 0.008390 -0.045798 -0.043436 -0.006749 0.017306 -0.181799 -0.086367 -0.054658 -0.188188 -0.145401 -0.158628 0.031090 -0.171121 -0.011702 0.050748 -0.010767 -0.026800 -0.069168 0.033044 0.101449 -0.064086 -0.102435 0.204223 -0.168212 0.009707 0.040997 0.080817 -0.114838 0.071644 0.022288 -0.118370 0.055853 0.020297
8z -0.024591 -0.028969 0.057905 -0.023184 0.112534 0.046059 0.066846 0.013208 -0.203047 -0.097152 -0.030203 -0.162356 -0.061173 -0.064089 0.019514 0.059151 0.041641 0.048151 -0.020069 -0.074668 0.026923 0.029067 -0.197737 -0.091557 -0.100067 -0.145393 -0.132625 -0.120146 0.115386 -0.092768 -0.085053 -0.104573 -0.022230 -0.070048 -0.044400 0.000301 0.061228 -0.063812 0.028866 0.228935 -0.123526 0.104760 0.030703 0.039732 -0.101507 0.025831 0.035413 -0.171578 0.090717 -0.104487
o8 -0.024558 -0.053897 0.025895 -0.014099 0.029362 -0.151619 0.015081 -0.022355 -0.096084 -0.028580 0.012766 0.031560 0.023823 -0.073097 0.101144 0.094144 -0.029070 0.150813 0.093419 0.083284 0.085929 0.134194 -0.095856 -0.092176 -0.014685 0.041942 0.031964 -0.181721 0.100037 -0.173870 -0.002327 0.009940 0.119227 -0.173730 0.070969 0.068298 -0.090618 0.128572 0.101412 0.124473 0.202806 0.047744 -0.112443 0.105925 0.020594 0.094527 0.040279 -0.141237 -0.047273 0.048349
random -0.236890 -0.805139 0.103656 -0.304891 0.229346 -0.841340 0.805119 -0.655068 -0.195662 0.238304 0.009626 0.505245 0.837982 0.185808 -0.163703 -0.178746 -0.153565 -0.493662 -0.109673 0.243462 0.042051 0.743161 0.516343 -0.442529 -0.505284 -0.352400 -0.354580 0.875688 0.397917 0.223728 0.181214 0.427666 0.477515 0.333947 -0.952524 0.402835 0.676645 0.147017 0.596502 -0.753922 0.166326 -0.140666 -0.202496 0.143669 -0.276716 0.410215 -0.082148 -0.008839 -0.433977 0.053241
vectors 0.160399 0.124849 -0.214707 -0.181561 -0.021998 -0.619013 -0.143212 -0.706577 -0.627239 -0.531208 0.220091 0.557017 0.301476 -0.317340 -0.035903 0.624354 0.198057 -0.040993 0.158598 -0.461732 -0.274107 0.193550 0.018889 -0.047584 -1.093243 0.441874 0.186963 -0.240596 0.333835 0.273143 -0.026796 -0.091055 0.269139 -0.399204 0.412430 -0.447808 -0.121770 0.163353 0.401587 -0.355441 0.212416 0.433046 0.145200 -0.636959 0.303065 0.452000 -0.032434 -0.506193 0.139448 0.458153
being -0.001635 -0.001412 -0.052389 0.285462 -0.150282 -0.199272 -0.021030 -0.105857 -0.061058 -0.292281 -0.020957 0.029382 -0.041127 -0.040495 -0.058144 0.377775 0.069265 -0.056934 -0.247785 -0.122015 0.688928 0.226131 -0.037792 0.104734 -0.212116 0.262933 0.408450 -0.045960 0.152763 -0.063807 -0.000807 0.128460 0.089961 -0.326334 0.257785 -0.182979 -0.041483 0.337980 0.285990 0.184440 0.146250 0.263395 -0.209754 -0.066742 0.025862 0.250905 0.121040 -0.152068 0.205173 0.174311
no -0.524775 -0.142670 0.999232 0.068922 -0.845480 -0.352951 -0.009628 -0.323895 0.452923 0.459721 0.031232 0.307640 0.094499 -0.021531 0.025234 -0.160425 0.632958 0.435690 -0.622356 0.116799 0.442043 0.091373 0.595496 0.681932 0.433929 0.284211 -0.090521 0.095031 0.093365 0.736879 0.327860 0.010175 -0.311858 0.255334 0.412979 0.386278 -0.231733 -0.079567 -0.042466 0.325681 0.604315 -0.108188 -0.618616 0.151082 0.120424 -0.191243 0.330567 0.294726 -0.176231 -0.621118
there 0.214673 -0.248919 0.574633 -0.023348 -0.094425 -0.246869 -0.080975 0.145171 0.037505 0.105920 0.215804 -0.045317 0.147849 -0.267615 0.454421 0.206262 0.034917 0.772289 0.166849 -0.226120 0.125448 0.046447 0.319025 -0.087087 0.045988 0.665217 0.070621 -0.287007 -0.035385 0.333465 0.078452 -0.324374 0.235586 -0.053290 0.280445 0.013180 -0.382266 0.132296 0.325746 -0.402532 0.609673 0.501453 -0.506794 -0.431683 0.242283 -0.235698 0.153177 -0.011473 0.063542 0.589017
word -0.274940 -0.040269 0.122118 -0.464261 -0.916262 -0.119343 -0.098729 -0.304438 -0.091449 0.211321 0.110523 0.251018 0.040283 0.032471 0.354178 0.069810 0.170444 0.121971 -0.276104 0.524682 -0.683552 -0.257672 0.520739 0.559769 -0.266551 -0.068105 -0.094268 -0.040626 0.165629 0.386890 -0.098160 -0.309985 -0.171181 -0.448237 0.692645 -0.307028 -0.441814 -0.269649 -0.108407 -0.122902 0.366536 -0.201889 0.209224 -0.227168 -0.263502 -0.303505 -0.083370 0.087751 0.299299 -0.661752
8h 0.042133 -0.089979 0.029038 -0.035691 0.013896 -0.206620 -0.049096 0.022381 -0.097168 -0.022906 0.099569 0.078387 0.033706 -0.139725 0.100919 0.087675 -0.063100 0.160756 0.072388 0.009421 0.114151 0.139959 -0.034206 0.001276 -0.002149 -0.053345 0.031625 -0.240320 0.067561 -0.178733 0.004831 0.010884 0.116478 -0.136694 0.043933 0.059879 -0.043921 0.173191 0.076085 0.129317 0.095858 0.086454 -0.182832 0.092215 0.021833 0.138896 0.006482 -0.126234 -0.119584 -0.020837
8j 0.102407 -0.010826 0.015442 0.035529 0.048226 -0.087806 -0.103962 0.034082 0.024312 -0.115931 0.013123 -0.068619 -0.062127 -0.085536 -0.001835 0.088052 -0.002792 0.175714 0.148250 -0.044873 0.124107 0.094319 -0.126698 -0.102982 0.166041 -0.080009 -0.181996 -0.131079 0.082952 -0.122241 -0.037153 -0.044884 0.015581 -0.063767 -0.056963 0.051602 0.058342 0.149086 -0.046918 0.141581 0.038799 0.044548 -0.140906 0.119151 -0.021501 0.121323 0.145061 -0.135636 -0.133169 0.039960
fruit -0.173959 -0.091243 0.462285 -0.172331 -0.022089 -0.346965 0.247744 0.088167 0.266215 -0.117114 0.192129 -0.232524 -0.093949 -0.091427 0.002927 -0.310874 -0.403051 -0.219960 -0.307911 -0.583484 0.254149 -0.179115 0.004623 0.338347 -0.519149 -0.081719 0.006399 -0.018206 -0.203423 0.686321 0.255111 -0.052765 -0.098467 0.399653 0.070446 -0.088102 0.067573 0.326409 0.190019 -0.209646 -0.224880 -0.067624 -0.114931 -0.246357 -0.154065 -0.220116 0.070368 -0.188715 0.352673 0.095776
hij 0.312557 0.295297 -0.034951 0.401293 0.211506 0.826075 -0.409130 0.092259 0.539729 -0.554364 -0.359580 -0.405501 -0.120114 0.204909 -0.932142 -0.482058 -0.036020 -0.227530 0.108822 -0.457886 -0.571651 -0.393871 -0.176316 -0.255220 0.366065 -0.641290 -0.551441 0.858766 -0.210927 0.557306 0.088699 0.189799 -0.478684 0.719048 -0.668857 -0.235872 0.568391 -0.247285 -0.730153 0.000507 -0.516025 -0.243112 0.341913 0.116161 -0.566113 -0.147809 0.351967 0.199400 0.114041 -0.187888
represented 0.454211 0.669145 0.003574 0.133211 0.164506 -0.388905 -0.539203 -0.481734 -0.223780 -0.732344 0.375936 0.350074 -0.042287 -0.554357 -0.133987 0.663985 0.089530 0.238930 0.154968 -0.669355 -0.282628 0.245925 -0.360231 -0.135294 -0.942952 0.263107 0.403544 -0.601221 -0.322264 0.219269 0.580570 -0.090869 0.342194 0.180775 0.299811 -0.217648 -0.037640 0.099093 0.195638 -0.155160 -0.020523 0.130587 -0.056376 -0.237805 0.528948 0.678187 -0.021042 -0.619369 -0.045641 0.890836
same 0.432160 0.081393 -0.025526 -0.115176 0.103364 -0.115942 -0.209128 -0.021265 -0.194952 0.129597 0.131629 0.354656 0.114846 -0.178054 0.334515 0.452982 -0.279632 0.398656 0.667097 -0.194208 -0.488456 0.192960 -0.125478 -0.433780 -0.071375 0.742087 0.404196 -0.294521 0.149941 -0.124663 0.073505 -0.535562 0.207442 -0.606286 0.280790 -0.211553 -0.388932 0.222307 0.371129 -0.140594 0.436008 0.416351 -0.013679 -0.478127 0.613801 0.115082 0.046333 -0.297791 0.027946 0.830105
9j -0.048076 0.103316 0.057669 -0.043400 0.125957 0.299967 0.118877 0.036606 -0.183679 -0.140471 -0.098857 -0.151612 -0.081801 0.073763 -0.202024 -0.086463 0.090003 -0.117711 -0.188960 -0.122332 -0.089727 -0.113835 -0.165853 -0.000071 -0.238223 -0.216892 -0.171790 0.042132 -0.116332 0.033078 -0.041037 0.124988 -0.247536 0.147940 -0.119996 -0.027630 0.188191 -0.361535 -0.204706 0.145727 -0.357394 0.087927 0.276251 -0.010489 -0.202516 0.081920 -0.043931 -0.016077 0.151427 -0.090344
9x 0.038274 0.153706 0.114521 -0.000372 0.263617 0.323537 0.209838 0.057074 -0.224852 -0.103570 -0.139262 -0.235816 -0.092492 0.236174 -0.256253 -0.206113 -0.030447 -0.180840 -0.217566 -0.181678 -0.046408 -0.207982 -0.153738 -0.047595 -0.030041 -0.139320 0.047687 0.111914 -0.124596 -0.036888 -0.052261 0.160937 -0.272743 0.111905 -0.204884 -0.025788 0.275026 -0.293901 -0.210470 0.160931 -0.508470 0.154277 0.197597 0.015040 -0.185846 -0.084166 -0.178736 0.146718 0.275712 -0.077918
compute -0.436210 -0.504608 -0.270823 0.020197 -0.042485 -0.126386 0.303041 0.141974 0.583169 0.557232 0.128786 0.141823 0.124880 -0.121076 0.445073 -0.318964 -0.706068 -0.063237 0.244707 0.618467 -0.267334 0.916214 0.250515 -0.630844 0.460502 -0.090030 0.037828 0.454307 -0.115859 0.212961 0.289546 0.135415 0.191524 0.344292 -0.623552 0.523104 0.379867 0.079878 0.810071 0.170650 0.157367 -0.181601 -0.250958 0.203281 -0.154159 0.652887 0.086688 0.053626 -0.518452 0.144905
find 0.395715 -0.296023 0.050101 -0.148053 -0.020315 -0.075154 -0.039464 -0.065761 0.044130 0.687551 -0.284596 0.315559 -0.147547 -0.043071 0.190855 -0.459211 -0.748323 0.223128 0.584226 0.333277 -0.496659 0.428547 -0.217226 -0.357000 0.471335 0.441112 0.479935 0.057940 0.485082 -0.225724 -0.641026 -0.367113 -0.014824 -0.514784 -0.285274 0.058014 0.001018 0.366240 0.265191 0.067204 0.142965 0.100157 0.022276 0.209288 0.177123 -0.094290 -0.284949 -0.056906 -0.192902 0.112520
first -0.361985 0.336531 -0.695699 0.174529 -0.508330 -0.121976 -0.221393 -0.338158 0.380478 0.082446 -0.034412 0.414928 0.003982 -0.342770 0.419874 0.329502 -0.083024 -0.216584 -0.004688 0.623525 -0.277983 0.199773 0.438471 0.089869 0.112423 -0.042767 0.044017 0.010909 -0.037233 -0.310106 0.158595 0.116499 0.020587 -0.054885 0.100507 -0.154479 -0.259061 -0.036628 0.108169 0.007681 0.199407 -0.575818 -0.131028 -0.107161 0.012396 0.514886 0.154056 0.429653 -0.156867 -0.218620
however -0.162218 -0.267830 -0.445372 0.152317 -0.056389 -0.572788 0.181513 0.088812 0.167612 0.395675 0.009788 0.014276 0.296081 -0.215413 0.179801 0.317911 0.165411 -0.282691 -0.000505 0.101386 0.303630 0.239309 0.125865 0.038270 0.234007 0.039455 0.037383 0.017189 -0.138789 -0.068222 0.214920 0.307193 0.224729 0.244091 -0.322374 0.289694 -0.138117 0.064622 -0.022505 -0.043935 0.378265 -0.317538 -0.227801 -0.232686 0.221745 0.443125 0.172690 0.099153 -0.203940 -0.103879
so 0.205582 -0.168233 0.061877 0.043233 0.316476 -0.080549 -0.206166 0.133226 0.148583 0.291034 0.112045 0.091413 0.224644 -0.066130 0.265218 0.124906 0.031265 0.385798 0.544591 -0.029017 -0.182728 -0.137919 0.138861 -0.381214 0.516136 0.316580 -0.084876 -0.021928 -0.112426 -0.374352 0.342051 -0.260127 0.238184 0.094761 -0.090103 0.106645 -0.280644 0.132468 -0.219020 -0.473190 0.393086 -0.069241 -0.240865 -0.090922 0.467916 -0.201771 0.082119 0.605066 -0.353067 0.476652
solving 0.080615 -0.809371 0.149631 -0.689113 -0.062509 -0.058205 0.477662 0.388880 -0.531206 0.803491 0.618972 0.344202 -0.210579 0.446334 0.546917 -0.023584 -0.082182 0.258747 0.477849 0.305927 -0.059804 -0.120332 0.207629 0.194447 -0.442051 0.110450 -0.092957 -0.021641 0.228422 -0.554836 -0.359382 -0.594903 0.372489 -1.092673 0.279556 -0.387830 -0.253791 -0.105227 0.377488 0.071197 0.689481 0.484738 0.207593 0.295202 -0.073445 -0.499668 -0.613496 -0.196157 0.273352 0.041557
8b 0.063062 0.053823 0.036862 0.048846 0.067601 0.119647 -0.070606 0.034843 -0.010161 -0.057493 -0.063385 -0.046790 -0.030879 -0.047069 -0.153077 -0.080337 0.038597 -0.021093 0.002810 -0.107164 -0.051924 -0.061574 -0.039845 -0.018985 0.015557 -0.089426 -0.072794 -0.027999 0.082651 0.002443 -0.050791 -0.008798 -0.050751 -0.048691 -0.034933 -0.041474 0.045616 0.039831 -0.075179 0.084514 -0.116398 0.044401 0.006751 0.020994 -0.071643 -0.084070 -0.005774 -0.025109 0.049946 -0.065625
b8 0.027110 0.003415 -0.003661 0.011736 0.070002 0.019127 0.057619 0.081596 0.047630 -0.078697 0.067146 -0.078382 0.006264 0.000097 0.034525 0.068817 0.014213 0.114579 0.039510 -0.046308 0.064322 0.003672 -0.075421 -0.024359 -0.006720 -0.096908 -0.083314 -0.073319 0.030876 -0.103041 -0.013477 -0.008730 0.028705 -0.086166 0.015720 0.057439 -0.004084 0.077657 -0.009690 0.078877 0.058467 -0.000289 -0.087208 0.088655 0.004918 -0.047788 0.061034 -0.146549 -0.014127 0.008520
inherit -0.079806 0.021524 0.042030 0.287672 0.463717 -0.699898 -0.226811 -0.227669 0.050529 -0.078235 -0.167212 -0.121693 0.327008 -0.147255 -0.467046 -0.185004 0.277358 -0.050149 0.305859 -0.583322 0.198596 -0.579169 0.244415 0.028256 0.321114 0.507783 0.145894 0.070367 0.130245 -0.197313 0.056328 0.248600 0.416660 0.376078 0.200707 0.085120 0.022038 0.517444 -0.528584 -0.242594 0.178027 0.037974 0.162498 -0.033556 0.265071 -0.177120 -0.049969 0.532079 -0.153928 0.272477
l8 0.046705 -0.002025 0.041358 0.044532 0.091300 0.062344 -0.014035 0.070456 -0.050379 -0.111086 0.002368 -0.119959 -0.040283 -0.036011 -0.068497 0.014522 -0.010164 0.055803 0.027533 -0.047598 0.014786 0.062249 -0.167436 -0.116442 -0.043764 -0.165016 -0.111255 -0.055317 0.012289 -0.033278 -0.039796 -0.004846 -0.026078 -0.029096 -0.122925 0.006022 0.075344 -0.013463 -0.021226 0.171294 -0.036975 0.020282 0.009592 0.041430 -0.121763 0.034409 0.069110 -0.139809 0.012818 -0.068261
marginal -0.552792 -0.333080 -0.776784 0.264042 0.087012 -1.038375 0.585872 -0.545674 -0.229459 -0.036085 -0.230218 0.349552 1.189710 0.165454 -0.242915 0.446043 1.026396 -0.978863 -0.076192 0.136262 0.349475 0.399391 0.801757 0.016806 -0.384473 -0.194549 -0.450599 0.839411 0.557646 0.008970 -0.094432 0.881719 0.903698 0.163074 -0.523360 0.500402 0.633168 -0.126177 -0.005290 -0.086087 0.388921 -0.313038 0.109370 0.027099 0.017408 0.578075 -0.104607 0.130601 -0.717855 -0.418803
most -0.101119 -0.128838 -0.308454 0.074530 -0.013766 -0.136217 0.041116 0.063975 0.169778 0.166594 -0.135520 0.171629 0.114179 -0.028612 0.419480 0.130842 -0.054012 -0.024036 0.114887 0.295133 0.239968 0.333273 -0.055413 -0.009819 0.168269 -0.108021 0.031365 0.053967 0.040810 -0.279062 -0.178219 -0.120012 0.100117 -0.074805 -0.035218 0.153431 -0.107239 0.058812 0.068893 0.028278 0.402078 -0.225544 -0.106811 0.113752 0.242112 0.294138 0.052110 0.107744 -0.245366 -0.071666
use -0.460934 -0.252356 -0.264511 -0.182004 -0.367008 -0.180693 0.001226 -0.132032 0.043849 0.340932 0.098574 0.378240 -0.000752 -0.105100 0.537507 0.048779 -0.247883 -0.067536 -0.007784 0.416598 0.044711 0.225620 0.208233 0.061224 -0.119158 0.169598 -0.153421 -0.024141 0.264092 -0.009342 -0.132344 -0.291839 -0.084774 -0.379715 0.247893 -0.073662 -0.361492 0.058975 0.442300 -0.224065 0.390921 0.010909 0.000484 -0.285517 -0.016523 0.125310 0.130273 0.116997 0.151365 -0.272492
98 0.014375 0.019425 0.011858 -0.005577 -0.045597 -0.066895 0.037403 0.003741 -0.094785 -0.074117 0.117215 -0.000682 0.075626 -0.005705 0.026946 0.084384 0.035559 0.047271 -0.030123 0.068405 0.069889 0.023055 0.009849 0.071859 -0.116830 -0.020661 0.008354 -0.177103 0.050053 -0.140481 -0.065341 0.062284 0.034581 -0.186877 0.113921 0.005994 0.004693 0.022575 -0.000836 0.080377 0.012351 -0.008271 -0.079330 0.078283 -0.017701 0.022497 -0.034287 -0.137808 0.012270 -0.017363
c8 0.071391 0.066233 0.004207 0.020177 0.051791 0.075622 -0.040015 -0.010189 -0.129917 -0.103831 -0.045322 -0.034438 0.005283 -0.055668 -0.066675 -0.009567 0.059441 0.038976 -0.027082 -0.035671 0.012630 0.063505 -0.107428 -0.042848 -0.036181 -0.140859 -0.070734 -0.102127 0.138912 -0.073054 -0.073142 -0.087414 -0.016420 -0.126608 0.005109 -0.011652 -0.002260 -0.018477 0.010935 0.144630 -0.018790 0.063873 -0.005227 0.072228 -0.057169 0.027665 -0.008896 -0.123435 0.042746 -0.045437
h8 0.040213 0.062722 0.018730 0.027566 0.030375 -0.009805 -0.000675 -0.000702 -0.154108 -0.048287 0.009764 -0.009499 -0.005267 -0.063606 0.035458 0.041493 0.055652 0.034574 -0.069896 -0.008085 0.102255 0.044117 -0.070945 0.042858 -0.047745 -0.051596 0.055922 -0.183162 0.134792 -0.136650 -0.032397 -0.049314 0.013577 -0.192869 0.110507 0.022411 -0.061145 0.036277 0.023084 0.117733 -0.032254 0.082516 -0.061874 0.093767 0.021835 -0.011716 -0.087726 -0.095765 0.048747 -0.011990
importance 0.404838 0.233265 -0.026674 -0.036945 -0.308558 0.189755 0.225702 -0.076864 -0.047006 -0.130358 -0.558819 0.051087 0.020326 0.184061 -0.028958 0.120826 0.157181 0.248676 -0.170662 -0.086815 0.378811 0.153979 -0.047066 0.168352 0.271234 0.176070 -0.094387 0.112816 0.670151 -0.255353 -0.406583 -0.118146 -0.403008 -0.627817 0.293344 0.013007 -0.471321 0.038091 -0.088385 0.017720 0.032578 0.186155 -0.116598 -0.274485 0.386530 0.121385 0.504403 -0.116187 0.059989 -0.200155
p8 0.008658 -0.002372 0.089987 0.002235 0.146931 0.091269 0.071959 0.031756 -0.126721 -0.125007 -0.069432 -0.183978 -0.087111 0.037361 -0.116298 -0.013128 0.027593 0.008280 -0.063791 -0.111137 0.062699 -0.016872 -0.170392 -0.075687 -0.012659 -0.189311 -0.113731 -0.004967 0.047423 -0.112264 -0.027202 -0.038699 -0.054207 -0.000700 -0.115097 0.001740 0.105387 -0.055613 -0.082410 0.207367 -0.179995 0.064895 0.034372 0.096380 -0.096640 0.009367 0.022502 -0.070568 0.108046 -0.033070
properties -0.190052 -0.504411 0.097534 -0.148306 0.402774 -0.466605 0.387515 0.135707 -0.253283 0.169683 0.084473 -0.008015 0.215963 0.105465 0.036004 -0.143407 0.215958 0.209139 0.239596 -0.340008 0.298404 -0.284718 0.114376 -0.215549 -0.233500 0.222200 -0.528540 0.090293 0.396180 -0.197175 -0.244584 -0.171591 0.149408 -0.261568 0.130740 -0.066648 -0.259067 -0.017776 -0.024281 0.018278 0.477754 0.489255 0.209203 -0.208872 -0.128739 -0.083775 0.221555 0.155890 0.265937 0.129608
query 0.654721 0.779808 -0.259904 -0.119124 -0.005279 -0.009093 -0.087623 -0.344313 -0.340095 -0.581620 -0.002208 0.533815 0.412304 0.181872 -0.126579 0.620651 0.207077 0.174189 0.367401 -0.288650 -0.368120 0.102033 -0.210724 0.118297 -0.501672 0.052979 0.082596 -0.052391 0.588395 -0.248184 -0.106928 -0.432421 0.283907 -0.811858 0.530345 -0.233503 -0.334960 0.009255 -0.056927 -0.134479 0.047852 0.120590 0.237762 -0.199412 0.786989 0.347482 -0.092236 -0.499329 -0.111139 0.388257
when 0.012889 -0.195430 -0.157644 -0.208284 0.054410 0.051807 -0.135215 0.204648 0.260306 0.528277 0.040341 0.093054 -0.113607 -0.086715 0.540225 -0.039295 -0.563860 0.057371 0.330726 0.339699 -0.319781 0.279470 -0.122509 -0.280752 0.461885 0.086483 0.363278 -0.021581 -0.252762 -0.215595 -0.009685 -0.247176 -0.091506 -0.001190 -0.282057 0.095668 -0.114711 0.303516 0.329785 0.064788 0.372787 -0.222526 -0.025198 -0.044243 0.162154 0.096517 -0.061352 0.011045 -0.050064 0.153916
8d -0.087844 -0.057829 -0.029565 -0.043670 -0.039986 -0.145486 0.052718 -0.016540 -0.079250 0.131460 0.020817 0.063840 0.076150 -0.034164 0.185582 0.095291 -0.005899 0.066349 0.003463 0.104143 0.116647 0.114787 -0.021572 -0.019225 -0.050451 0.096137 0.077631 -0.114663 0.101565 -0.141811 -0.061910 -0.130457 0.151556 -0.174185 0.120910 0.045616 -0.138387 0.130579 0.156272 0.022718 0.175652 0.043016 -0.079196 0.047696 0.127858 -0.001262 0.006061 -0.078807 -0.027625 0.008625
8f -0.083676 -0.046353 -0.020742 -0.079343 -0.051647 -0.218630 0.075554 -0.019593 -0.139420 0.057976 0.103380 0.146750 0.128728 -0.078957 0.161837 0.107260 0.040976 0.034742 -0.023840 0.146980 0.203614 0.138467 -0.001680 0.076511 -0.121067 0.151180 0.153778 -0.278855 0.067746 -0.183398 -0.029107 -0.008094 0.114389 -0.253712 0.181652 0.079735 -0.107745 0.053222 0.142097 0.066946 0.183393 0.062221 -0.114965 0.054114 0.124971 0.114056 -0.073689 -0.077323 -0.043615 0.078829
8l -0.000287 -0.007714 -0.033011 -0.021622 0.066213 -0.021269 0.046381 0.010522 -0.086418 -0.021471 -0.020489 -0.068547 0.001507 -0.079209 0.004077 0.064279 0.023926 0.065355 0.057197 -0.000036 -0.007842 0.082579 -0.110013 -0.112579 0.005877 -0.082370 -0.136012 -0.086051 0.071179 -0.075618 -0.039689 -0.047892 -0.004746 -0.018961 -0.036722 -0.009951 0.020170 -0.008322 0.041965 0.101730 -0.061824 0.039445 0.007884 0.006185 -0.036363 0.057925 0.004425 -0.114411 0.037558 -0.038803
8m 0.009464 0.039398 0.066760 0.015044 0.050091 0.102259 -0.024911 0.072503 -0.061333 -0.073476 -0.036961 -0.103229 -0.084086 -0.009256 -0.115708 -0.086464 0.043863 -0.014664 -0.052063 -0.081339 0.023832 -0.039840 -0.077872 0.059410 0.002183 -0.133483 -0.034789 -0.066427 0.055518 -0.065198 -0.042907 0.023794 0.012207 -0.075871 0.030190 -0.036272 0.043473 0.021458 -0.025221 0.163845 -0.164823 0.009651 -0.032869 0.089277 -0.132097 -0.096358 -0.063735 -0.039701 0.063935 -0.131012
8p -0.010449 0.038033 -0.006470 0.017048 0.078163 -0.008290 0.037371 0.049239 -0.076709 -0.143308 0.058699 -0.137421 -0.000766 -0.045736 0.028478 0.114157 0.096956 0.027487 -0.015272 -0.047218 0.099372 0.030907 -0.129739 -0.049330 -0.117293 -0.156565 -0.086805 -0.170974 -0.019572 -0.173475 0.017875 0.005150 0.058371 -0.051856 0.016891 0.037889 0.021177 -0.020663 0.017604 0.156290 0.001641 0.019265 -0.027622 0.041293 -0.057246 0.079817 0.055004 -0.122395 -0.003058 -0.072326
8y 0.040648 0.217447 0.184603 0.067875 0.169739 0.339523 0.020781 0.095388 -0.062840 -0.259221 -0.113566 -0.342645 -0.128505 0.163393 -0.347258 -0.171444 0.049518 -0.166940 -0.225544 -0.200149 0.053982 -0.188352 -0.277935 0.021086 -0.046155 -0.376221 -0.167634 0.003376 -0.129364 -0.045879 0.024431 0.062314 -0.142767 0.131680 -0.176127 -0.039121 0.320724 -0.105700 -0.222309 0.240453 -0.472660 -0.044255 0.072685 0.224993 -0.301131 -0.155981 -0.063149 -0.032363 0.208491 -0.099085
9n 0.050684 0.124823 0.072084 0.001013 0.268789 0.421444 0.041506 0.095242 -0.181679 -0.199060 -0.212242 -0.198166 -0.132492 0.091413 -0.385031 -0.229797 -0.054404 -0.155196 -0.086124 -0.213556 -0.198481 -0.177242 -0.303416 -0.123939 -0.108404 -0.195334 -0.119293 0.053623 -0.149569 -0.019853 -0.092037 0.224730 -0.283540 0.184279 -0.376929 -0.090015 0.358207 -0.265654 -0.244272 0.207034 -0.614740 0.096360 0.320434 -0.027010 -0.331443 -0.092137 -0.146123 -0.037134 0.215293 -0.088130
but -0.142913 0.003363 0.128672 0.115122 -0.038449 0.068481 -0.196935 -0.196869 -0.095414 0.136671 -0.070035 0.144390 -0.260672 -0.353447 -0.087173 -0.082986 -0.279804 0.161382 0.148206 0.136086 -0.192808 0.014746 -0.259996 -0.365756 0.022059 0.186869 -0.276655 -0.172222 -0.028857 0.358806 0.168944 -0.115734 -0.274427 0.243815 -0.194630 0.080368 0.035261 -0.079696 0.079250 -0.236967 0.043070 0.187561 0.091660 -0.333665 -0.002388 0.267764 0.056764 0.032102 0.196169 0.086513
d8 0.009352 -0.020560 0.012924 -0.049591 0.073136 0.009285 0.076131 0.054892 -0.045195 0.014049 0.000234 -0.082959 -0.007844 -0.026564 0.031010 0.058336 -0.015700 0.062993 0.027593 -0.071622 0.025715 -0.015661 -0.127866 -0.125908 -0.020028 0.011367 -0.045223 -0.073652 0.018841 -0.067014 -0.012572 -0.032955 -0.030924 0.000103 -0.042329 0.084249 0.011636 0.059198 0.028656 0.102582 -0.020675 0.047367 -0.005336 0.023436 0.019082 0.025060 0.001579 -0.108891 -0.011364 0.048800
s8 0.043640 0.082503 0.076364 0.010208 0.116442 0.158313 -0.011806 0.068031 -0.093776 -0.135093 -0.011500 -0.150042 -0.072330 -0.000945 -0.109122 -0.041432 0.002369 -0.001366 -0.012362 -0.106578 0.031935 -0.006358 -0.207836 -0.082827 -0.026191 -0.141857 -0.105046 -0.068456 -0.023148 -0.106495 -0.045203 -0.033638 -0.078536 -0.029387 -0.133997 -0.020105 0.125010 -0.031006 -0.072636 0.161358 -0.239372 0.024443 0.064296 0.093337 -0.122075 -0.055533 -0.051450 -0.077528 0.072593 0.003161
theory -0.406705 0.068198 -1.051314 0.388079 -0.198337 -0.262158 0.407257 0.422232 0.126201 -0.073367 -0.157384 0.084660 0.506154 0.296055 0.356996 0.576178 0.569088 -0.385408 -0.112639 0.306353 0.666022 0.470168 0.239886 0.161392 0.248492 -0.177607 -0.090982 0.160660 0.208188 -0.474225 -0.162135 0.478089 0.576309 -0.236903 0.021006 0.546716 0.142080 -0.352745 0.203890 0.487247 0.269308 -0.236417 -0.058161 0.214895 0.242322 0.501114 0.100662 -0.024092 -0.582107 -0.281581
they -0.003803 -0.075550 0.182291 0.110436 0.533369 -0.432170 -0.365844 -0.080493 -0.120723 0.119855 0.466087 0.165646 -0.188374 -0.761927 0.260661 0.181678 -0.234775 0.589940 0.685087 -0.334823 -0.378140 -0.179199 -0.150489 -0.623744 0.157163 0.481335 0.150304 -0.328963 -0.359995 0.294650 0.436599 -0.036685 0.383839 0.671167 -0.223636 0.196175 0.055949 0.266520 0.044273 -0.353531 0.256615 0.203980 -0.073547 -0.366404 0.401660 0.189600 -0.092299 0.150487 -0.218017 0.739835
9e -0.033668 0.068442 0.047181 -0.052566 0.134039 0.207321 0.188888 0.075287 -0.231701 -0.159262 -0.014409 -0.104809 -0.040162 0.110131 -0.129107 -0.050115 0.107920 -0.163410 -0.188231 -0.105703 -0.034218 -0.135545 -0.097585 0.050116 -0.251894 -0.189022 -0.130904 -0.016576 -0.156866 0.006860 -0.045601 0.173917 -0.231016 0.053754 -0.058668 -0.050810 0.139544 -0.340591 -0.170177 0.130669 -0.298176 0.092470 0.195084 -0.031181 -0.193250 0.024454 -0.054653 0.005817 0.188547 -0.118020
9p 0.022714 0.160240 0.060511 0.037093 0.207016 0.258716 0.139533 0.004783 -0.220251 -0.163052 -0.098000 -0.239072 -0.040081 0.137779 -0.258884 -0.152780 0.029973 -0.161215 -0.186002 -0.150832 -0.103011 -0.185096 -0.146647 -0.085440 -0.055759 -0.210215 -0.055352 0.091091 -0.095733 0.031722 -0.004586 0.135201 -0.248823 0.152150 -0.166976 -0.056219 0.280414 -0.261692 -0.187071 0.136440 -0.432147 0.131735 0.179857 0.001081 -0.213855 -0.014156 -0.104242 0.061899 0.254191 -0.105983
9t -0.091638 0.047646 0.091943 -0.099808 0.107187 0.108813 0.171803 -0.022788 -0.311863 -0.040329 -0.048388 -0.035767 -0.038965 0.026387 -0.062809 -0.017088 0.078225 -0.070948 -0.157954 -0.002241 0.053376 -0.030277 -0.191681 -0.021010 -0.266976 -0.049864 -0.006450 -0.163551 -0.005021 -0.149304 -0.079121 0.085816 -0.127356 -0.088676 -0.031941 -0.009680 0.070337 -0.207790 0.016054 0.197321 -0.240225 0.171844 0.177602 -0.007785 -0.080105 0.072562 -0.132520 -0.133116 0.157603 -0.030425
because -0.110761 -0.022951 -0.125236 0.110270 0.468660 -0.559010 0.213085 -0.050983 -0.013940 -0.108398 0.562082 0.066180 0.216337 -0.280899 0.131011 0.481224 0.548769 0.149746 -0.108346 -0.375765 0.469727 0.214075 0.040587 -0.191797 -0.207818 -0.337265 -0.354436 0.036857 -0.490714 -0.320798 0.565659 0.281680 0.320929 0.695968 -0.341581 0.257425 -0.114880 -0.260308 -0.097821 0.101323 0.290938 -0.135042 -0.323570 -0.034688 0.266855 0.937146 0.189380 -0.154950 -0.187171 0.554235
both 0.018448 -0.287703 -0.127977 -0.069227 0.619392 -0.371068 -0.106747 -0.092475 -0.386988 0.095413 0.137987 0.044588 0.171972 -0.242171 0.080922 0.062884 0.178672 -0.038944 0.320903 -0.350456 -0.046129 -0.226993 -0.040198 -0.320142 -0.151451 0.147843 -0.006791 -0.029945 -0.064502 -0.287224 0.019426 0.084386 0.362615 0.195402 -0.532498 -0.094674 0.051508 0.185736 -0.140976 -0.399226 0.147231 0.041366 0.112949 -0.160407 0.161802 -0.049821 -0.314149 0.292834 -0.051614 0.369606
how 0.314105 -0.319438 0.771301 0.086507 0.093127 0.187074 -0.004476 0.119549 0.193732 0.219900 -0.360667 -0.035973 -0.155484 -0.022929 0.107152 -0.449886 -0.271820 0.673119 0.055462 0.026992 0.406177 0.050855 -0.140800 -0.270817 0.500674 0.257429 -0.264508 -0.257089 0.094935 -0.238975 -0.031694 -0.643134 -0.048504 -0.079922 -0.095565 0.090644 -0.128684 0.257045 0.031041 -0.172328 0.252888 0.283300 -0.504542 0.436245 0.296657 -0.179756 0.244711 0.112425 -0.048029 0.399341
i8 0.074682 0.022251 0.031397 0.039698 0.120881 0.052383 -0.076137 0.010058 -0.062724 -0.118956 -0.062389 -0.075124 -0.094653 -0.017205 -0.155608 -0.053042 -0.016374 0.058100 0.069085 -0.080392 -0.013644 0.058314 -0.156873 -0.081555 0.006486 -0.161643 -0.117980 0.037961 0.013363 0.003547 -0.043604 -0.006125 -0.028028 0.037575 -0.130623 -0.010517 0.072995 -0.025962 -0.099163 0.149905 -0.096904 0.052635 0.037148 0.103247 -0.121279 0.019597 0.072221 -0.100016 -0.000282 -0.056104
program -0.543652 -0.281990 -0.125363 -0.290956 -0.140968 -0.048355 0.511758 0.343538 0.131662 0.103142 0.487461 -0.086818 0.150286 0.188065 0.861035 0.218752 0.373146 0.171839 -0.403761 0.270058 0.467763 0.202263 0.328449 0.326727 -0.246989 -0.518632 -0.345257 0.113771 -0.156381 -0.161073 -0.145359 -0.181986 -0.031745 -0.162055 0.476217 0.123390 -0.482765 -0.520426 0.242478 0.403757 0.405232 0.026331 -0.100549 0.026431 -0.133765 0.209381 0.304153 -0.330407 0.012274 -0.363482
r8 -0.005566 0.040985 -0.008917 0.061088 0.019519 0.011878 -0.045146 0.032732 -0.011329 -0.110430 0.030497 -0.040754 0.040272 -0.044157 -0.037702 0.046358 0.013097 0.005510 0.029931 0.011815 0.034975 0.026911 -0.082301 -0.050103 -0.046115 -0.016127 -0.028366 -0.093667 0.021925 -0.025411 0.017498 -0.013726 0.013770 -0.023807 -0.058894 0.020266 0.032828 -0.045628 -0.043915 0.076038 -0.016422 -0.000289 0.016090 -0.029301 -0.034865 0.015794 0.028630 -0.069486 -0.019100 0.057672
set 0.160601 -0.020830 0.096832 -0.004646 0.072429 -0.070745 0.217762 -0.218260 -0.517603 -0.338738 -0.519046 0.014161 -0.008175 0.035870 -0.175941 0.044127 -0.009711 -0.073040 -0.198424 -0.426045 0.140275 0.148089 -0.337381 -0.071219 -0.490063 0.326014 0.080086 -0.058300 0.613453 0.205816 -0.534708 -0.054494 -0.263993 -0.633423 0.021978 -0.212187 -0.036618 0.219816 0.207526 0.057178 -0.016685 0.581049 0.101755 -0.389110 -0.100844 0.015092 0.141654 -0.305843 0.428469 -0.048259
some -0.085226 0.102338 -0.058245 0.114152 -0.206993 0.054203 -0.282906 0.190022 0.082346 0.068213 0.313009 -0.062413 -0.186837 -0.252940 0.378828 0.286955 -0.394040 0.145537 0.305095 0.202261 -0.488400 -0.096143 0.121574 0.057769 0.271972 0.296063 0.287251 -0.300235 -0.487691 0.359633 0.240788 -0.019731 -0.005336 0.112468 0.252332 -0.038176 -0.254029 0.149576 0.138178 -0.290179 -0.020592 -0.143196 -0.156711 -0.666469 0.123989 -0.208153 0.288913 0.020587 0.030316 0.114679
t8 0.035912 -0.014488 0.074225 -0.020532 0.069606 -0.030792 -0.041853 -0.020576 -0.051378 -0.098840 0.039022 -0.063615 -0.047391 -0.031054 0.025606 0.032346 0.001928 0.106603 0.059306 -0.041575 0.031081 0.020652 -0.105532 -0.070486 -0.008335 -0.074426 -0.108613 -0.101812 0.064610 -0.080064 -0.044875 0.002794 -0.057294 -0.068004 0.009199 -0.018096 -0.011577 0.046035 0.005958 0.103982 -0.015369 0.055112 -0.061028 0.105958 -0.018508 0.006351 0.049743 -0.124352 0.030537 0.035257
8k 0.040832 0.077306 0.022964 0.068727 0.117438 0.180334 -0.007039 0.058334 -0.125153 -0.117912 -0.108198 -0.208542 -0.075839 0.009505 -0.138352 -0.079285 -0.032246 -0.012889 -0.020542 -0.068849 -0.023405 -0.069841 -0.167886 -0.100384 0.075255 -0.137117 -0.086276 0.001493 0.055102 -0.070257 -0.124948 -0.049227 -0.086137 -0.057406 -0.098089 -0.047430 0.183409 -0.006146 -0.108645 0.160674 -0.259269 0.021196 0.098874 0.051447 -0.173014 -0.125395 -0.074181 -0.023974 0.108581 -0.101765
8n 0.026561 0.000871 0.004695 0.005971 0.006065 -0.106474 -0.074625 -0.008555 -0.049435 -0.077379 0.063633 -0.010601 -0.056276 -0.102903 0.032580 0.057031 -0.037135 0.084117 0.059327 0.002259 -0.001328 0.062436 0.026294 0.011083 -0.015824 -0.065677 -0.057666 -0.146188 0.025826 -0.038265 0.000263 0.041661 -0.003078 -0.061630 0.031265 -0.019610 0.006717 0.032315 -0.000194 0.047770 0.020149 0.040906 -0.045101 0.021462 -0.034475 0.077158 0.039077 -0.116167 -0.056687 -0.074750
8u -0.051487 -0.122297 -0.038205 -0.135707 -0.004061 -0.276472 0.100412 -0.010019 -0.272271 0.036076 0.118285 0.051146 0.027870 -0.187805 0.302919 0.266701 0.021644 0.127703 0.039082 0.127815 0.131043 0.183249 -0.054036 -0.001724 -0.181899 0.056893 -0.004343 -0.375935 0.085703 -0.251263 -0.096435 -0.036622 0.135516 -0.237895 0.189625 0.077198 -0.104470 0.039153 0.166431 0.115904 0.080522 0.111018 -0.067952 -0.044270 0.033871 0.185583 -0.053280 -0.161132 -0.056519 -0.109382
9f 0.045707 0.167296 0.086715 0.035748 0.257076 0.384899 0.069861 0.072216 -0.167222 -0.197251 -0.131930 -0.226198 -0.113745 0.146308 -0.324136 -0.215654 0.045092 -0.191084 -0.144959 -0.253856 -0.057678 -0.218808 -0.229025 -0.053721 -0.123946 -0.204314 -0.080373 0.091789 -0.172019 -0.017399 -0.059151 0.180140 -0.236047 0.190926 -0.236758 -0.066781 0.238624 -0.296741 -0.231130 0.179435 -0.515891 0.099019 0.251636 -0.028109 -0.248520 -0.067375 -0.097542 0.058031 0.218323 -0.070115
9w 0.078488 0.309320 0.052947 0.210663 0.145846 0.348078 -0.130715 -0.034105 0.039675 -0.299109 -0.174895 -0.205476 -0.184064 0.075588 -0.357966 -0.200597 -0.076864 -0.126297 -0.050304 -0.156669 -0.138923 -0.097521 -0.181225 -0.040210 0.104892 -0.221759 -0.011912 0.029823 -0.228841 0.064439 0.025605 0.214964 -0.201818 0.210901 -0.198871 0.014209 0.284342 -0.134280 -0.249349 0.152732 -0.549641 -0.081962 0.188272 0.051137 -0.263122 -0.040955 -0.074774 0.059510 0.101672 -0.114243
common -0.455358 -0.183642 0.092145 0.005464 -0.014722 -0.833233 -0.040113 -0.220506 0.051605 0.062763 0.138560 0.204114 0.127961 -0.401223 0.029741 -0.132912 0.019093 0.196505 0.120514 -0.291345 0.133969 -0.203573 0.315618 0.021348 -0.204891 0.292218 -0.494122 -0.152060 0.218606 0.187597 0.199485 -0.086044 0.137836 0.131664 0.356694 -0.061613 -0.345995 0.136976 -0.070374 -0.237377 0.476401 0.097266 0.071987 -0.351568 -0.100377 0.188990 0.445591 0.327805 0.224745 -0.009095
computing 0.258282 0.094357 0.033667 0.088978 0.228110 0.185483 -0.074206 -0.286057 -0.101816 -0.257284 -0.321955 -0.187227 0.038144 0.070600 -0.652277 -0.223783 0.138278 -0.201944 -0.163092 -0.379697 -0.086603 -0.088823 -0.032550 -0.084950 -0.011437 -0.271882 -0.079702 0.436834 0.170775 0.100111 -0.056763 0.306878 -0.042093 0.260467 -0.622157 -0.196978 0.316993 0.012165 -0.233320 0.041830 -0.519080 -0.162077 0.167704 0.193406 -0.407134 0.001042 -0.297005 0.178654 0.083594 0.011644
substructure 0.021898 -0.605658 0.063836 -0.569617 0.494320 0.376502 0.348933 0.864849 -0.255970 0.326488 0.390458 -0.450911 0.029820 0.588633 0.481216 -0.190227 -0.145072 0.029441 0.215449 -0.058965 -0.141785 -0.645049 0.092201 -0.540631 0.011311 0.109609 -0.052276 -0.013759 0.067110 -0.595228 -0.436935 -0.364847 -0.064617 -0.630139 -0.077368 -0.320025 -0.305245 0.053798 -0.031261 0.210550 0.075823 0.375529 0.185299 -0.396173 0.015597 -0.742405 0.046787 0.137875 0.355282 0.305915
8g 0.053172 -0.060206 0.017141 -0.050529 0.048308 -0.154760 0.035679 0.034402 -0.054550 -0.023697 0.041371 -0.026298 0.017257 -0.042300 0.137694 0.160082 -0.011701 0.176179 0.083292 0.023418 0.155813 0.128932 -0.091533 -0.077794 0.031561 0.019366 -0.001907 -0.173181 0.116286 -0.180616 -0.044995 -0.042240 0.078565 -0.153140 0.070711 0.117364 -0.038366 0.133930 0.086766 0.158850 0.094766 0.081894 -0.131660 0.088949 0.051075 0.088840 0.044280 -0.193106 -0.098270 0.029025
8o 0.031887 0.047702 0.144040 0.011881 0.129976 0.127799 0.078618 0.066591 -0.095461 -0.052106 -0.001854 -0.141574 -0.065125 0.077595 -0.090535 -0.085338 -0.001786 -0.045417 -0.088010 -0.074815 0.105543 -0.049315 -0.087257 0.026034 -0.057484 -0.115767 0.006746 -0.025099 -0.050559 -0.092786 -0.052312 0.033674 -0.074815 -0.021220 -0.046797 -0.007644 0.069009 -0.073109 -0.090096 0.115901 -0.236645 0.099553 0.037782 0.110169 -0.058729 -0.046634 -0.064074 0.002960 0.075156 0.006200
8t 0.043712 0.024875 0.049992 0.004202 0.114506 0.097367 -0.014846 0.008770 -0.049302 -0.122206 0.002176 -0.105252 -0.014097 0.009114 -0.087666 -0.016797 0.023228 0.003552 0.029541 -0.101620 -0.014632 -0.001735 -0.137196 -0.058433 -0.064041 -0.170794 -0.140737 -0.016519 0.010114 -0.024702 -0.031144 -0.058468 -0.045149 0.013800 -0.082070 0.003118 0.048955 -0.055097 -0.035354 0.133112 -0.071658 0.036691 0.023065 0.061295 -0.138335 -0.000895 0.058967 -0.099551 0.028802 -0.049942
9l 0.003380 0.104945 0.046367 0.021271 0.118001 0.303604 0.067640 0.038688 -0.068406 -0.163241 -0.120647 -0.195252 -0.105204 0.146862 -0.320885 -0.200397 0.034425 -0.162603 -0.145767 -0.148047 -0.222034 -0.182528 -0.123561 -0.021587 -0.035438 -0.220183 -0.197298 0.175975 -0.151820 0.169693 0.004633 0.146609 -0.275320 0.228394 -0.203237 -0.066632 0.249973 -0.294976 -0.233854 0.081647 -0.404666 -0.020586 0.236990 -0.005819 -0.280872 -0.076380 -0.048035 0.071877 0.186841 -0.154217
a8 0.034917 0.018891 0.030069 0.015493 0.069651 0.018438 -0.027603 -0.048187 -0.117267 -0.060647 -0.046851 -0.126346 -0.055960 -0.054418 -0.027650 0.032516 -0.015699 0.033799 0.013865 -0.032255 0.013328 0.024512 -0.133423 -0.083419 0.007689 -0.132301 -0.104464 -0.072398 0.066465 -0.087330 -0.043956 -0.069063 -0.001523 -0.025079 -0.031156 0.016988 0.022667 0.018736 -0.029717 0.136594 -0.101245 0.010542 0.056740 0.065650 -0.057890 0.021938 -0.015872 -0.069390 0.042839 0.008760
another -0.023134 -0.024371 0.121895 0.177373 -0.090860 -0.395668 0.044909 -0.179824 0.045527 0.327193 -0.060060 0.141848 -0.125299 -0.114007 0.078769 -0.079179 0.096348 -0.042977 -0.065843 0.231957 0.188385 0.143172 0.032150 0.506708 0.124944 -0.204043 0.195942 -0.024811 0.088159 0.004644 -0.362041 0.350143 0.180615 0.115455 -0.203475 0.316005 0.309418 -0.018868 -0.108908 0.210586 0.026739 -0.317593 -0.213515 0.611766 -0.102765 -0.095202 -0.209969 0.106764 -0.422136 -0.606614
best 0.653741 0.164085 0.030160 0.206500 -0.011809 -0.090695 -0.196133 -0.165975 -0.101807 0.270864 -0.424640 0.188017 -0.298367 -0.229286 -0.106810 -0.149635 -0.196613 0.328731 0.375592 0.039979 -0.044997 0.372146 -0.643050 0.096107 0.293655 0.264500 0.455357 -0.294088 0.203369 -0.331986 -0.737599 -0.118798 -0.188075 -0.177898 -0.035595 0.094172 0.038895 0.101061 -0.119773 0.267426 -0.006899 0.160827 0.034449 0.506427 0.203268 0.052481 -0.147207 -0.372803 -0.221135 0.019093
derived 0.120228 0.436900 -0.153506 0.337212 -0.011210 -0.530992 -0.048946 -0.104144 0.155807 -0.276186 0.069629 -0.192000 0.346665 -0.093798 -0.356504 0.491532 0.682448 0.047248 -0.197988 -0.360097 0.784802 0.034359 0.080985 0.363584 0.177958 0.377251 0.282934 -0.370689 -0.201185 -0.362989 0.479334 0.345193 0.417661 0.471171 0.641973 0.400327 -0.238116 0.116780 -0.213916 0.200511 0.226207 0.120293 -0.324792 0.087420 0.673933 0.564198 0.238790 -0.244175 -0.397134 0.417933
f8 -0.043893 0.036249 0.049272 -0.018752 0.106385 -0.008839 0.108502 -0.018862 -0.312446 -0.067268 -0.071024 -0.077651 -0.044777 -0.066102 -0.001404 -0.041556 0.014912 0.036151 -0.094855 0.013221 0.092320 0.054058 -0.187966 -0.076682 -0.101532 0.041897 0.007097 -0.235712 0.119181 -0.166516 -0.091439 -0.033313 -0.046854 -0.219586 0.099025 0.035423 -0.000033 -0.094970 0.062250 0.212883 -0.160171 0.157465 0.046066 -0.057611 -0.065286 0.033015 -0.134758 -0.092292 0.114113 -0.055829
generalization -0.181454 -0.267568 0.040921 -0.230962 0.217802 -0.425234 0.484278 0.206714 -0.124859 -0.047425 0.519383 -0.042960 0.086698 0.071816 0.327606 0.273770 0.338644 0.022608 -0.434481 -0.150694 0.674133 0.197225 0.008451 0.091706 -0.552994 -0.532939 -0.446598 -0.070229 -0.262100 -0.178354 0.234382 0.087068 0.257341 0.236919 -0.163461 0.196770 -0.131587 -0.339302 0.234961 0.078475 0.198655 -0.057332 -0.293340 0.319862 0.005806 0.491956 0.077988 -0.393546 0.003823 0.201295
non -0.009068 0.508038 -0.177641 -0.165060 -0.312111 0.092985 -0.174857 -0.297515 -0.011099 -0.123106 0.038742 0.476611 0.037808 -0.072356 0.127387 0.196599 0.193999 -0.024561 -0.100769 0.260778 -0.151709 0.099890 -0.245350 0.253853 -0.465663 -0.398584 -0.539912 -0.186202 0.255892 0.088146 0.001554 -0.304203 -0.114956 -0.338636 0.397554 -0.072988 -0.337587 -0.441996 0.053680 -0.073480 0.075562 -0.284129 0.165433 -0.015571 0.140873 0.303436 0.034995 -0.270218 0.046310 -0.448415
overlapping 0.221762 -0.735946 0.216858 -0.412117 0.650220 -0.028686 0.358423 0.552957 -0.474460 0.556948 0.252795 -0.114228 0.170482 0.379268 0.152269 -0.008584 0.091301 0.191436 0.551087 -0.218545 -0.211251 -0.325654 0.041438 -0.603678 -0.077302 0.191767 -0.173344 0.140852 0.130822 -0.481492 -0.139366 -0.244882 0.266060 -0.515982 -0.401027 -0.113151 0.002556 -0.116229 -0.023596 0.108154 0.407823 0.431528 0.050578 0.052692 0.071850 -0.431291 -0.251580 0.184128 0.107281 0.415413
their 0.147598 -0.407467 0.464251 -0.138317 0.091963 -0.144101 0.331113 -0.158290 -0.087747 0.374984 -0.215157 0.151548 -0.003525 0.051562 -0.185670 -0.401532 -0.253700 0.068855 -0.106800 0.193787 0.306771 0.253833 0.023641 -0.209430 0.209934 0.218631 0.049843 0.215761 0.527343 0.004595 -0.162324 0.039217 -0.053908 -0.056946 -0.417694 0.140212 0.103443 0.188195 0.280701 -0.211930 -0.019892 0.166451 -0.242678 0.375462 -0.147202 -0.185802 -0.015305 0.072743 -0.112814 0.009262
x8 0.017937 0.066954 0.012835 0.016508 0.025404 -0.030239 0.007654 0.039076 -0.074383 -0.085377 0.009439 0.021159 -0.005570 -0.011735 0.000998 -0.006910 0.036522 0.023102 -0.019421 -0.014770 0.068157 0.033296 -0.052607 -0.016623 -0.042722 -0.041107 -0.050939 -0.111640 0.062258 -0.042439 0.008089 -0.032309 -0.024125 -0.080335 0.064633 0.001057 -0.008154 -0.010015 -0.001484 0.065465 -0.032949 0.093665 -0.025318 0.012627 -0.033349 -0.020158 0.028615 -0.059214 0.023042 -0.032040
9m -0.016814 0.043184 -0.000945 -0.001722 0.096721 0.192686 0.063527 0.010300 -0.134210 -0.131268 -0.050568 -0.159008 -0.057659 0.056956 -0.120570 -0.046494 0.082807 -0.163734 -0.062098 -0.074310 -0.127480 -0.143568 -0.081679 0.006378 -0.134095 -0.100753 -0.101542 0.006198 -0.120944 0.034457 -0.048394 0.104542 -0.151686 0.069800 -0.066108 -0.034487 0.121333 -0.187020 -0.091448 0.077758 -0.294505 0.012116 0.210222 -0.092751 -0.218253 -0.042218 -0.108177 0.012460 0.143202 -0.140365
9v 0.021813 0.165304 0.162469 0.023187 0.164517 0.445584 0.065867 0.031457 -0.121226 -0.178531 -0.212771 -0.233139 -0.182220 0.148464 -0.383920 -0.253002 -0.009585 -0.211886 -0.168665 -0.213450 -0.201832 -0.238620 -0.188584 -0.038483 -0.154950 -0.283920 -0.140202 0.094779 -0.207367 0.031499 -0.042323 0.221876 -0.312052 0.198275 -0.284236 -0.070136 0.318322 -0.322590 -0.273893 0.214384 -0.647603 0.011004 0.349741 0.011738 -0.371967 -0.104370 -0.162051 0.026772 0.251940 -0.202469
attributes -0.053565 -0.065132 -0.209454 0.259365 0.485846 -0.492854 -0.222541 -0.280504 -0.270774 -0.115517 -0.077321 0.057257 0.339509 -0.114160 -0.328791 0.078067 0.340148 -0.328218 0.422638 -0.268861 -0.102949 -0.523011 0.265947 -0.097003 -0.002280 0.256247 0.136645 0.164073 0.125060 -0.263904 -0.076754 0.330813 0.628955 0.154254 -0.143018 -0.079868 0.299229 0.322288 -0.438769 -0.301476 0.098606 -0.114222 0.268065 0.078146 0.172732 -0.220405 -0.398348 0.505378 -0.218359 0.182697
g8 -0.000268 0.044589 0.078056 0.029662 0.109547 0.179200 -0.056767 0.004017 -0.072676 -0.113853 -0.095397 -0.138417 -0.123559 0.003948 -0.204097 -0.141436 -0.028894 -0.017220 0.006221 -0.068435 -0.145026 -0.055537 -0.117421 -0.067231 -0.007569 -0.229232 -0.177402 0.060156 -0.012362 0.070878 -0.067312 0.045527 -0.120823 0.060038 -0.148741 -0.063872 0.157526 -0.110784 -0.135080 0.082226 -0.193898 -0.002136 0.168185 0.045542 -0.210677 -0.054679 -0.009164 -0.022170 0.099458 -0.091051
order -0.010763 -0.036079 0.011566 -0.066661 -0.540466 -0.179050 -0.371551 -0.444278 -0.080094 0.264852 -0.005582 0.263156 -0.164683 -0.645468 0.235432 -0.023123 -0.304888 0.387568 0.323815 0.609638 -0.762331 0.138128 0.213106 -0.022321 0.186312 0.298554 0.006389 -0.255281 0.301763 0.510666 -0.187337 -0.110975 -0.015841 -0.098512 0.445217 -0.180174 -0.334495 -0.085870 0.140431 -0.343934 0.316241 -0.060198 0.123115 -0.509755 -0.180575 -0.153803 0.077050 -0.100844 -0.056321 -0.224733
process 0.371694 -0.220816 0.172708 -0.234675 0.148159 0.261054 0.201039 0.156386 -0.189429 0.290618 0.103269 0.237644 -0.035381 0.194841 0.065778 -0.092584 0.022614 0.437336 0.177247 0.026958 0.239686 0.137835 -0.151140 -0.200010 0.285784 0.101085 0.008941 0.026802 0.624246 -0.497178 -0.311949 -0.121761 0.003659 -0.498334 -0.066426 -0.013521 -0.291502 -0.134701 0.047858 0.105505 0.178272 0.323941 0.013647 0.047039 0.043038 -0.332768 0.036084 -0.182731 -0.093098 -0.038285
